0.037727
-0.259988
0.587441
0.589474
0.644752
0.359434
-0.200934
0.504617
-0.030955
0.324121
-0.615689
-0.823820
0.652978
-0.810587
-0.252811
-0.653982
-0.145746
-0.459275
-0.142985
0.593126
-0.154383
-0.940517
-0.649965
0.067174
-0.424861
0.105779
0.023214
-0.886821
-0.971363
0.422365
-0.075488
0.066364
-0.837623
-0.488047
-0.344162
0.807129
0.871387
0.454904
0.311746
-0.159568
-0.220975
0.696057
0.016612
-0.567997
0.885470
0.763801
-0.221980
-0.260277
-0.695474
0.635036
-0.667151
0.150143
0.694518
-0.317116
-0.782683
-0.730343
0.788664
0.240531
-0.617164
0.817301
-0.337104
0.307348
-0.116335
-0.174727
0.819301
0.539503
-0.367598
0.690688
-0.005593
0.944148
-0.468880
0.773432
0.640205
0.547732
-0.794566
0.525674
0.311534
-0.016545
-0.734602
0.616060
-0.381510
-0.401753
-0.233797
-0.686991
0.281132
-0.016480
-0.417334
0.069795
-0.775949
-0.034499
-0.112904
-0.113053
-0.727151
0.770761
0.712220
-0.907850
0.310264
-0.655378
0.782838
-0.695330
-0.711230
-0.686042
-0.921898
0.928975
0.861690
-0.716464
0.454649
0.173224
0.266991
0.720047
-0.210716
0.885482
-0.681706
0.555487
-0.801510
0.599426
-0.460993
-0.218844
-0.330779
-0.236942
0.746657
0.545068
0.585769
-1.037943
0.339486
0.374634
-0.872831
-0.347146
0.715576
0.830401
-0.122224
0.995618
-0.791548
0.020114
0.924593
-0.929858
0.303650
0.379243
0.243365
-0.429359
0.099290
-0.967351
-0.543877
0.417584
0.588136
-0.345387
0.017010
-0.872857
0.435769
0.681769
-0.125696
0.194835
0.254956
-0.444281
0.217446
-0.414861
0.917945
0.319212
0.195676
0.609280
0.208084
-0.851021
0.604898
0.416535
0.169093
0.529492
0.486677
-0.527257
-0.091266
-0.269958
0.043384
-0.991976
-0.237309
0.499507
0.425609
-0.649174
-0.845879
-0.619639
-0.487067
0.533771
-0.837295
0.403154
-0.192712
0.406370
0.959153
1.021922
0.943199
0.681876
0.152222
0.147990
0.420086
-0.504077
0.296969
0.024985
0.912458
-0.533938
-0.445524
0.399134
-0.061195
0.463211
-0.870824
0.982189
0.471235
-0.108133
0.386108
-0.153738
0.211652
0.591937
0.285088
0.623303
0.141728
0.335041
0.011170
0.942107
-0.175875
-0.047131
0.836656
-0.219267
-0.191987
0.260112
0.928723
-0.771900
0.756034
0.225693
0.253084
0.668492
0.691755
0.807560
0.067626
-0.369440
0.270771
0.196803
-0.482840
-0.332154
-1.048905
-0.899665
0.553752
0.218390
0.653340
-0.131399
0.016843
-0.081866
-0.580015
-0.925077
-0.141596
0.286333
0.138063
-0.073735
-0.932933
0.946076
-0.813623
0.995790
-0.825825
0.942411
0.221483
0.427260
0.610903
-0.086763
0.234820
-0.321470
0.585799
-0.457882
0.870113
-0.753742
0.215578
0.936363
-0.818338
-0.168438
0.262376
0.857084
0.838388
-0.637692
-0.158365
-0.688619
-0.511754
0.891216
0.597715
0.626308
-0.182518
0.664781
0.572384
0.003859
0.660571
0.746560
-0.053730
-0.117946
0.173819
-0.442826
0.837294
-0.535687
0.344185
0.374975
-0.137568
-0.045297
0.400770
-0.903606
-0.100941
0.570405
0.008908
-0.574641
0.727880
-0.086969
-0.282209
-0.334897
0.224412
0.206037
-0.443680
-0.177873
-0.167655
0.373802
-0.513091
-0.595271
-0.622339
-0.852520
-0.848711
0.323931
0.046774
0.366947
0.910319
-0.142674
0.677180
0.084306
-0.823164
-0.489845
-0.842877
0.611083
-0.227247
0.453506
0.406174
0.858078
0.673283
0.134054
-0.228891
-0.608926
0.799158
0.995521
0.597111
-0.644523
-0.182352
-0.570544
0.729279
0.304557
-0.165815
-0.893061
0.469058
0.068660
0.460092
-0.487181
-0.760204
0.318186
0.304619
-0.940497
-0.587630
0.404215
-0.191361
-0.298981
0.129808
0.502110
0.959507
-0.463966
0.360188
0.632790
0.670089
-0.868703
-0.976136
0.469246
-0.873182
0.620975
0.824723
-0.055534
-0.949569
0.554002
-0.722707
-0.107157
0.712812
0.849381
0.866040
0.214679
-0.782562
-0.837362
-0.615397
0.465257
-0.658743
-0.029370
-0.033973
-0.082695
0.489195
-0.910800
-0.580585
0.448701
-0.374766
0.779603
0.081491
-0.704677
0.910900
0.105355
0.764569
-0.962282
-0.273671
0.589293
-0.010919
-0.227122
0.136908
0.212225
0.632516
-0.243264
-0.211123
0.297235
0.820860
0.173747
0.839293
-0.538259
-0.302453
0.937134
0.135509
0.566375
-0.145561
-0.378403
0.652468
0.273854
-0.929701
-0.722297
0.053458
0.151789
-0.426974
-0.035642
-0.742856
-0.662405
-0.062981
-0.108652
0.938064
1.100036
0.712250
-0.138354
-0.107276
0.291033
0.854672
-0.780389
0.102955
0.853900
0.356252
-0.334792
-0.926593
0.869669
-0.397658
0.202703
0.429832
0.456781
0.824301
0.082300
-0.269365
0.894599
0.360003
0.784093
0.046389
0.933028
-0.305056
0.317598
-0.693210
0.750801
-0.867839
-1.110784
0.463600
-1.095543
0.258799
0.030540
0.526037
0.181483
0.151492
-0.578081
-0.084316
-0.636273
0.087127
-0.017122
-0.772816
0.689469
-0.814418
0.657016
0.146250
-0.990118
-0.260684
0.876885
0.904481
-0.900681
0.628292
-0.023693
-1.036260
-0.645825
-0.910423
-0.954706
-0.923477
-0.533211
-0.296587
1.047984
-0.353439
0.822095
-0.098398
-0.942506
-0.086609
0.946086
-0.520586
0.822863
-0.696399
0.566541
-0.194259
-0.469215
0.256009
-0.008677
-0.812199
-0.597741
0.001205
-0.072883
-0.692813
-0.137009
-0.037924
0.958644
0.868688
-0.040651
-0.701859
-0.901554
0.489382
-0.454128
-0.358857
0.948989
-0.599938
0.236831
0.633512
0.249238
0.298509
-0.459309
0.192218
0.777923
-0.636446
0.495819
0.344463
0.169295
-0.973396
-0.399527
-0.839383
-0.785596
0.005838
0.086305
0.092220
0.236467
-0.873314
-0.875360
0.201230
0.916577
0.290124
0.538140
-0.963634
-0.406934
-0.914370
-0.342622
-0.572003
-0.537427
0.928406
-0.918871
0.734537
0.226915
-0.378180
-0.073245
0.004838
-0.014626
-0.577426
-0.650699
-0.845332
-0.550823
0.000608
-0.657841
-0.262439
1.010501
0.513468
0.771673
0.159566
0.434763
0.908171
-0.569042
0.433144
0.204372
-0.960209
0.470066
0.754648
-0.913745
-0.808904
-0.760991
-0.405720
-0.880498
-0.679862
-0.671182
0.346418
-0.058042
0.255573
-0.648744
0.927332
0.678146
-0.299443
-0.917999
-0.821144
0.736758
-0.550919
-0.157295
0.602608
0.874478
-0.403821
-0.162782
0.419010
-0.430934
0.293597
-0.123221
0.735224
0.321524
-0.608605
0.557148
0.430505
-0.417509
0.796157
-0.975215
-0.298007
-0.883705
-0.646397
-0.951589
0.058254
0.609176
-0.600333
-0.014414
0.287322
0.100224
0.067587
0.414645
-0.249445
0.464873
-0.794450
-0.646609
0.339267
-0.198443
0.190609
-0.241723
0.370623
-0.515794
0.645967
0.139485
0.805731
-0.962638
-0.303367
0.236236
-0.380147
-0.507210
0.261021
0.321846
-0.390915
0.614624
0.370257
0.667339
0.223800
0.769924
-0.347075
-0.488878
-0.129853
0.720512
0.925767
0.620702
0.185386
-0.868683
0.974094
-0.475347
-0.067126
0.164703
0.282930
-0.696503
0.648909
-0.071102
0.442982
0.454640
-0.033740
-0.860385
-0.309124
0.586112
-0.367595
0.951897
-0.092042
0.241490
0.566522
-0.721785
-0.091171
-0.209679
-0.951862
0.561755
0.301443
-0.081714
0.282267
0.227210
-0.461012
-0.532347
0.358527
-0.486919
-0.007694
-0.708598
0.677784
-0.724763
-0.405101
0.326693
0.204135
-0.962119
-0.218667
-0.829606
-0.822504
0.472209
0.756507
-0.190099
0.424106
-0.335535
-0.948609
-0.009373
-0.057321
-0.039779
0.780949
-0.009183
-0.478025
0.082392
0.909103
0.804243
-0.690398
-0.551909
-0.728104
0.668130
-0.038828
0.264203
0.959532
-0.361043
0.539439
-0.445569
0.965650
-0.256426
-0.407688
-0.253017
-0.086032
-0.230192
-0.780809
-0.329525
0.579709
0.643297
0.334939
0.631100
-0.366076
-0.722381
-0.408679
-0.585127
0.268436
0.113296
0.497265
0.177539
-0.082461
0.806867
0.625630
0.189435
0.474997
-0.413198
-0.546362
0.434529
0.225759
0.993077
0.988960
0.191409
-0.263349
-0.418728
0.938392
0.650619
0.351080
-0.842417
-0.678906
-0.069210
0.800880
0.656034
-0.438110
-0.565195
0.933652
0.153211
-0.150322
0.202088
-0.733493
-0.653058
-0.620373
0.184046
-0.846190
-0.994743
-0.626518
0.628807
-0.407940
-0.172881
0.063335
0.817819
-0.179803
0.052295
0.009228
0.556848
0.633567
-0.052381
0.207467
-0.015353
0.105202
0.528562
0.915437
-0.093917
0.184595
-0.522673
0.340887
0.118248
0.630538
-0.809435
-0.679664
0.897045
-0.462493
-0.300037
0.081091
-0.308683
-0.294779
0.454572
-0.679876
0.297280
-0.718308
0.383459
0.115099
0.101888
-0.564246
-0.875673
-0.341264
-0.930679
0.071946
0.866204
0.053969
-0.822852
0.394765
-0.030595
0.083231
-0.420640
0.446732
-0.575882
0.697608
0.077270
-0.385317
-0.982056
-0.025686
0.152191
-0.282093
-0.944595
0.843508
0.423128
0.509977
-0.836368
-0.279591
0.791669
0.547091
0.835508
-0.106443
0.982845
0.959834
0.552293
-0.947834
0.031780
0.418497
0.106135
0.208929
-0.186738
-0.924460
-0.707840
0.392623
0.522273
-0.283722
0.090231
-0.400458
0.330961
0.108175
0.573857
-0.516848
0.826082
0.629262
-0.673340
0.249210
0.139239
-0.509709
0.969619
-0.069092
-0.962618
0.805127
0.824465
-0.979773
0.764961
0.376759
-0.927607
-0.203259
-0.204744
0.178528
-0.994330
0.608518
0.254068
-0.702170
0.001140
-0.223659
0.014108
-0.908629
0.375883
-0.654931
0.199546
-0.050260
-0.089502
0.136547
-0.304809
0.175167
-0.704876
0.702268
0.629200
-0.776784
-0.241675
0.793473
-0.950416
-0.526387
0.702781
0.814545
0.850372
0.775174
-0.388714
-0.354372
-0.046298
-0.383044
-0.745854
-0.792230
-0.085214
0.255286
-0.015889
0.928893
0.346657
-0.640006
-0.638493
-0.420413
0.330020
0.122469
0.555859
0.872763
-0.758908
0.830697
0.621991
0.846330
-0.908874
-0.743877
0.584790
-0.859290
-0.270263
0.287571
0.955254
-0.419891
0.062745
-0.433459
0.225736
-0.983553
0.183497
0.479882
-0.775783
-0.901717
-0.264832
0.208328
-0.878197
-0.966057
0.528544
-0.757764
-0.428831
-0.086202
0.439063
-0.691269
-0.088079
0.635710
-0.952523
-0.627073
0.562621
-0.862347
-0.370111
0.147411
-0.721637
0.359626
-0.565018
-0.766383
0.939734
0.497726
-0.199842
0.165470
0.514173
0.983655
-0.354648
0.737562
-0.926779
0.274768
-0.165577
-1.177304
0.289087
-0.527059
-0.671368
-0.994197
0.505840
0.782056
-0.697929
-0.840952
0.473958
-0.663241
-0.466347
0.036579
-0.525587
0.163542
-0.816010
-0.247224
-0.476832
-0.381028
-0.013607
-0.537098
-0.883302
0.786551
0.628373
0.630043
0.688971
-0.845810
0.127505
0.524774
0.616038
-0.615878
0.986577
0.105622
-0.216325
-0.622865
0.221710
-0.776713
-0.814920
0.497195
-0.615998
0.659038
0.833955
-0.082345
-0.304383
-0.691632
-0.918802
-0.120393
0.061143
-0.395634
0.498579
-0.952464
0.067268
0.617780
0.671100
-0.470619
0.130979
0.547939
0.059204
-0.341644
0.582408
-0.374206
-0.151193
0.383223
0.751576
0.761578
0.789201
-0.052835
0.986522
0.974282
-0.555639
-0.629476
0.633320
-0.721684
0.288180
-0.671063
-0.413317
0.369377
0.208545
0.647827
0.973743
-0.290373
0.698126
-0.064485
-0.682273
0.557781
0.741309
0.596128
0.147407
-0.240689
-0.749677
-0.434197
0.331413
0.115344
-0.992126
0.069831
-0.122249
0.797075
-0.983003
-0.135727
0.771356
-0.538643
0.234797
0.404676
-0.260327
-0.477024
0.733614
0.326356
0.892354
-0.059532
-0.061294
0.814163
0.692048
-0.263996
-0.126084
0.856056
-0.805763
-0.251282
0.644115
0.332640
0.361003
0.724189
0.922921
-0.320591
-0.160466
0.930794
0.749240
0.717284
0.727869
0.766237
-0.418443
0.499226
-0.772406
0.816354
-0.096098
-0.032733
-0.660670
-0.282375
-0.678075
-0.730023
0.728912
0.278664
-0.902135
0.042176
0.962908
0.136180
0.400988
-0.869870
0.595854
-0.258372
0.469089
-0.001571
-0.534937
0.392009
0.677838
0.304597
0.322803
0.427078
0.021881
0.050673
0.193314
0.603438
-0.450102
0.420908
0.419792
0.451632
-0.553216
0.838898
-0.916690
-0.398080
0.697422
0.466049
1.015081
-0.748179
0.136405
0.918338
0.048495
-0.897621
-0.976693
-0.257873
-0.158537
0.492396
0.740556
0.306526
-0.115595
0.418394
-0.388877
-0.792792
-0.154528
0.633004
0.257881
-0.961214
0.236442
0.735249
0.462556
-0.350753
0.234842
0.752642
-0.651860
0.195678
-0.436114
-0.567209
0.173270
-0.434629
-0.456322
0.932402
-0.633766
0.551968
-1.011835
-0.610459
-0.669646
-0.134112
0.881936
-0.929090
-0.827586
-0.233659
0.489304
-0.216463
-0.026451
-0.665225
-0.583460
-0.639042
-0.519144
0.719134
-1.000123
0.836624
-0.689606
0.299323
0.755004
-0.261684
-0.298857
-0.703972
0.187775
0.686137
-0.309929
0.589226
0.565145
0.056305
0.213712
0.625828
0.445845
0.544066
-0.508284
0.327782
0.614976
-0.335871
-0.905877
0.104279
0.447666
0.071887
0.465561
0.966335
0.592539
1.042651
0.746225
0.446357
0.706025
0.853613
-0.249889
0.456228
-0.335703
0.314422
0.537793
0.645454
-0.065908
-0.772136
0.307199
-0.428245
0.284168
-0.479089
-0.802417
-0.269986
-0.935023
-0.310701
-0.942204
0.679953
0.353428
-0.946559
-0.187481
-0.132183
0.543554
-0.678016
-0.430700
-0.570061
-0.873609
-0.742073
0.859485
0.715256
-0.952484
-0.518515
0.008772
-0.476387
0.752625
-0.453436
-0.758415
-0.240765
-0.225572
0.548784
0.330990
-0.941404
-0.930305
0.528573
-0.211390
-0.865328
-0.782128
-0.279735
0.665302
0.560401
-0.016810
-0.534690
-0.808522
-0.884149
-0.176321
-0.085556
-0.349055
-0.130571
0.207297
-0.471485
-0.525276
0.192818
0.089713
0.548592
0.788949
-0.121403
-0.904844
-0.969465
0.637832
-0.130416
0.579319
-0.031177
-0.071819
0.649014
-0.502604
0.680532
0.723373
-0.419371
-0.635475
0.269018
-0.998201
0.369513
-0.790776
-0.363742
0.684774
-0.012234
0.596614
-0.583999
0.849383
-0.082298
0.110517
-0.582823
-0.854084
-0.800633
0.965769
0.934865
0.077964
-0.939075
0.965399
-0.284204
-0.069491
0.544718
0.684619
0.898788
0.292857
-0.957173
0.382332
-0.237652
-0.261690
-0.976687
-0.438121
0.140360
0.745732
-0.314077
0.742771
0.408429
0.828335
0.575600
0.996539
0.669560
-0.543692
0.105330
-0.913263
-0.397776
0.304697
-0.947494
-0.462912
-0.617340
-0.886569
-0.497512
0.098456
0.043940
-0.952794
-0.210601
-0.161331
0.206015
-0.081416
-0.551008
-0.817439
0.783518
-0.383212
-0.205918
0.046224
-0.683014
0.602243
-0.074832
0.796620
0.359180
-0.571494
0.792296
0.028741
-0.115186
-0.102374
0.115478
0.487038
-0.797677
0.167984
-0.975874
-0.415016
0.281414
-0.473386
0.683440
-0.674646
-0.426180
-0.533485
0.227985
0.814758
0.431605
0.706096
-0.966887
0.293978
-0.677116
-0.172804
-0.659798
-0.360129
-0.605828
0.229240
-0.563510
0.753353
0.657746
-0.771213
-0.217906
-0.457440
0.126413
0.897571
-0.970402
0.328736
0.065555
-0.946276
0.913720
-0.653031
-0.419661
0.597160
-0.327676
0.154159
-0.936325
0.900308
-0.031083
0.495280
0.606404
0.002031
-0.210742
0.929288
0.829226
0.129460
-0.430841
-0.776602
-0.641300
0.005649
0.976751
-0.983554
0.234436
-0.241155
-0.440994
-0.639151
-0.343584
-0.411396
0.689585
0.721971
-0.357671
0.603305
-0.931060
0.222667
0.200464
-0.258736
-0.623174
0.264139
-0.358428
0.345743
-0.240581
-0.752024
-0.652226
0.548677
-0.822735
-0.823000
-0.321863
-0.253576
-0.599601
0.036837
0.752073
-0.622850
0.053282
-0.013491
0.135994
0.612289
0.347358
0.792410
-0.799107
0.036943
0.514381
-0.156779
-0.359752
0.583321
-0.934112
0.840712
-0.675415
-0.557285
0.104851
-0.033843
0.788458
0.864269
0.214133
-0.863768
0.412946
0.391398
-0.686767
-0.908917
-0.862179
-0.286369
0.127919
0.889895
0.090781
-0.818798
-0.123596
-0.773225
0.793490
-0.776238
-0.980814
0.994383
0.260705
0.533567
-0.162396
0.900953
0.116888
-0.096507
0.741665
0.441473
0.346208
-0.153484
-0.592370
0.134666
-0.289215
0.621764
0.270898
-0.876269
0.013161
0.584131
-0.785186
0.150983
-0.702238
0.342733
0.040877
0.388543
0.523935
0.917281
0.615318
0.317425
-0.858957
0.634504
0.311808
0.401748
0.168071
-0.850587
0.302701
-0.715041
0.052905
0.044366
0.726432
-0.600887
0.890881
-0.865938
0.533779
-0.398333
0.755825
-0.195323
-0.274602
-0.231013
-0.611193
-0.059788
0.919970
-0.313431
-0.717055
-0.039153
-0.924888
0.806880
-0.121872
0.690431
0.124306
0.019171
0.324935
-0.563886
-0.579081
-0.506995
-0.414473
0.723620
-0.222036
0.638432
-0.232015
-0.495604
-0.962455
-0.341133
-0.361543
0.571324
0.260534
-0.605717
-0.624000
0.985931
0.163269
-0.235192
-0.073857
0.083239
0.451377
0.209088
-0.955914
0.526489
0.015968
-0.077786
0.216920
-0.859726
0.941385
-0.458146
-0.423612
-0.637697
0.034860
0.161914
-0.914077
0.812824
-0.199654
-0.146091
-0.682781
-0.162109
0.512775
-0.044324
-0.590785
-0.226691
0.349959
-0.214785
-0.240760
-0.486771
0.550022
0.685383
0.596467
0.001399
-0.105529
0.640553
-0.472112
0.910439
-0.437233
0.744808
-0.949287
-0.495848
-0.713337
-0.372899
-0.133545
0.321522
0.789015
-0.047622
0.134346
-0.410639
0.806287
0.451565
0.427252
0.319062
-0.592759
0.836466
-0.907629
0.757200
-0.378319
-0.148388
-0.729571
-0.828297
-0.463005
0.866896
0.173103
0.431466
0.507450
0.700991
0.341906
-0.929783
0.445799
0.392619
-0.425631
0.732462
-0.980281
0.440824
0.053984
0.808734
-0.606797
-0.811670
-0.601905
-0.800511
0.639895
0.825346
0.518546
-0.952870
0.661806
0.610916
0.804331
-0.716508
-0.537465
-0.925235
-0.544803
-0.000470
0.941662
0.628300
-0.569004
0.449112
0.329291
0.772902
0.519329
-0.224909
0.165520
-0.906302
-0.492447
0.185240
0.534522
0.561537
-0.006026
0.927724
0.749867
0.392062
-0.872792
0.389755
0.217408
0.645758
0.436891
-0.120778
0.256687
0.241234
0.162721
0.719223
0.316000
0.617919
-0.281247
0.257662
0.246219
0.149749
-0.293226
-0.424490
-0.077350
-0.773898
0.350600
-0.911829
-0.680200
0.858153
0.273410
0.841440
0.419689
-0.726355
0.788155
0.175618
0.666044
0.915852
-0.425538
-0.107989
0.582572
1.025810
0.785701
-0.188286
0.237450
-0.081184
-0.469063
-0.446550
-0.463265
0.249690
0.811112
0.782953
-0.600561
-0.482114
-0.641537
0.322089
-0.256012
0.709063
0.420713
-0.050143
0.456127
-0.312027
-0.074907
0.024474
0.018973
-0.103709
-0.563421
-0.303589
-0.349533
-0.238063
0.516980
-0.835560
-0.288004
0.243469
-0.023847
0.949446
-0.837715
0.507090
-0.497103
-0.300981
-0.243220
-0.685991
-0.518027
0.156219
-0.168105
-0.159564
-0.511239
0.377195
-0.446467
0.879851
-0.236387
-0.889220
-0.426539
0.619372
0.164133
0.722684
-0.701114
0.305778
-0.855747
-0.132651
0.975864
0.621174
0.031788
-0.312140
-0.135357
-0.992058
-0.362694
0.026927
0.515032
0.140203
0.725947
-0.728188
0.454212
-0.792080
0.448971
-0.672812
0.149843
1.029192
0.901117
0.708655
0.917450
-0.552915
0.790151
-0.483924
-0.899297
-0.152821
0.900891
-0.682627
-0.921725
-0.975762
0.184722
-0.945862
0.645411
-0.783490
-0.258002
-0.489946
-0.775548
0.379304
0.536981
0.739483
-0.480493
0.262928
-0.967764
1.027944
0.591063
0.554782
-0.658323
-0.361273
0.396320
-0.842832
-0.862193
0.252895
-0.289091
0.841568
0.507715
-0.317090
-0.350180
0.398152
0.000283
-0.271906
0.422390
-0.814995
-0.217768
0.067801
-0.598485
0.524230
0.577855
-0.374033
-0.096466
0.114837
-0.613605
0.484643
-0.466560
-0.466676
0.490090
0.927000
0.914214
0.722647
-0.642658
0.240719
0.783615
-0.515749
-0.697697
-0.598131
-0.683497
0.810017
0.084779
-0.033677
0.208170
-0.914938
0.694417
-0.369440
-0.729933
-0.523351
0.698361
-0.328418
-0.999121
0.276216
0.299746
-0.080693
-0.455180
0.837980
-0.615815
-0.162673
-0.912800
0.703591
-0.339240
1.003845
0.388418
-0.015280
0.017542
0.159193
0.470122
0.319850
0.561062
0.786625
0.129867
-0.354159
-0.247052
-0.661964
-0.269097
-0.552636
-0.031404
0.000971
-0.075986
-0.333043
0.674750
-0.040734
1.042233
0.070245
0.893742
-0.589914
-0.309866
-0.828658
0.200129
-0.293700
0.888285
0.719898
-0.471352
0.261770
-0.294278
0.546206
-0.579037
-0.824156
-0.133945
0.982024
0.962469
0.995922
-0.372135
-0.284583
-0.666042
0.358769
0.162782
0.302555
-0.621674
-0.794910
1.138009
-0.771544
0.037668
0.912334
0.024923
-0.137289
-0.573511
0.758616
0.014548
0.350253
-0.691712
-0.121272
0.070428
-0.163000
-0.859502
0.776150
-0.616794
-0.438539
0.951994
0.249261
-0.456515
0.914464
0.245183
0.171350
-0.370119
0.579141
-0.424169
0.917703
0.124230
0.025000
0.908014
-0.176790
-0.055069
-0.042450
-0.115530
1.022408
0.749347
0.011101
0.559988
-0.270105
-0.639245
0.868382
0.608623
0.431184
-0.294618
0.749121
0.207334
0.088588
-0.689418
0.159328
-0.662151
-0.145933
0.073791
0.583032
-0.882174
0.914732
0.363017
-0.360367
0.515311
-0.865376
0.632601
0.493870
-0.082462
-0.507968
-0.601745
0.668115
-0.699409
0.999077
-0.330231
0.852130
-0.271029
0.030525
0.720512
-0.662406
-0.538292
-0.574106
-0.913285
0.669042
0.514482
-0.602703
-0.171630
0.852331
0.300106
1.103506
0.635444
0.225144
0.612868
-0.168185
1.013695
0.207155
-0.344039
0.397675
-0.382498
0.545098
0.653757
-0.255104
0.195448
0.937345
-0.256027
0.865217
0.789475
0.472944
-0.104258
0.509987
0.810538
0.357450
0.935882
0.897253
0.026492
0.450364
-0.681339
0.974199
0.280631
0.451788
0.806285
-0.135488
-0.076842
0.401145
0.348411
-0.254038
-0.440264
0.977153
0.932710
-0.057028
0.513478
0.577976
0.687879
-0.291074
0.515320
-0.568148
-0.425856
0.304795
0.904796
0.469886
-0.185217
0.715334
-0.172664
-0.249336
0.612588
0.756409
-0.821326
0.905587
0.826328
0.621041
0.482299
0.502583
-0.676191
-0.614323
-0.179122
0.574443
-0.072177
0.293166
0.553956
-0.136941
-0.763423
0.067850
-0.558549
0.924456
0.776776
0.956771
-0.643692
-0.649080
0.261567
-0.738896
0.820805
-0.923651
0.899468
-0.602238
-0.268623
0.536190
-0.504112
-0.004229
0.460444
-0.790599
-0.410210
-0.010799
0.681997
-0.229385
0.222038
-0.495552
-0.649574
-0.844703
0.798535
0.905292
0.019188
-0.964888
-0.026858
0.460639
0.959568
-0.250082
0.417410
-0.684124
0.100838
-0.321023
-0.423020
-0.078357
-0.302259
-0.545779
0.503662
0.590900
-0.770981
-0.834697
-0.368750
0.638607
-0.717588
0.142147
-0.412179
0.958707
0.915199
0.812779
-0.536274
-0.733387
0.968492
-0.737738
-0.828095
-0.012321
-0.702626
0.145047
-0.551682
-0.743058
0.894964
0.865728
-0.427183
-0.004198
-0.455296
0.149797
0.917445
0.300030
0.703214
0.487229
-0.117630
0.845658
0.558982
0.492751
0.484265
0.841394
-0.365102
-0.927914
0.800178
-0.449409
0.884865
-0.736095
-0.182797
0.853357
-0.473833
-0.010892
-0.158964
-0.176460
-0.865845
0.289354
0.080482
-0.970881
0.155082
0.653299
0.024921
0.699786
-0.196904
-0.057634
-0.000184
-0.493690
-0.570406
0.882186
-0.648032
0.988576
0.374937
0.836233
0.829970
-0.990165
0.908319
0.630148
-0.439574
0.793184
0.894053
0.377629
0.646541
-0.579780
-0.633263
-0.512423
0.243760
-0.499108
0.776930
-0.675758
-0.469989
-0.067988
0.977540
0.554932
-0.368202
-0.219364
-0.502702
0.631614
0.286946
-0.073108
0.513800
0.638914
-0.084532
-0.111263
0.475147
-0.254562
-0.101427
0.383466
-0.624414
0.458999
0.176650
-0.730361
-0.163372
-0.176809
-0.310141
0.203365
0.310767
0.933619
0.704257
0.087697
-0.742140
-0.765732
-0.980291
-0.764599
0.789200
-0.348493
0.016037
-0.713502
-0.716879
-0.697017
0.213390
0.796921
0.941897
-0.871141
-0.314341
0.417044
-0.125703
0.584231
-0.199490
0.249883
0.043230
0.977160
0.519523
0.879858
-0.199649
-0.790618
0.083223
-0.888882
-0.857000
-0.212520
0.198816
-0.599139
0.021748
0.218525
-0.363739
-0.189052
0.870032
0.652298
0.097447
-0.846846
0.955281
-0.689163
0.950075
0.897178
-0.560304
-0.364266
0.314222
0.313993
-0.780035
-0.885267
-0.436124
0.263195
-0.908107
-0.916601
0.143053
-0.107756
-0.707219
-0.773724
0.003362
-0.564219
0.013756
-0.797822
-0.163358
-0.964496
0.420703
0.472904
-0.153547
0.290735
0.125202
0.943899
0.443888
0.080483
-0.745264
0.393963
-0.022339
-0.305568
-0.970303
-0.708117
-0.991575
-0.750338
-0.593384
-0.427698
0.512857
-0.501491
-0.344299
-0.344090
0.390753
-0.051518
-0.117815
-0.605884
0.384263
0.895941
-0.403706
-0.779095
0.931446
-0.983004
0.693809
-0.222101
0.307731
-0.180989
-0.278202
-0.248380
0.899494
-0.023465
-0.854417
-0.122845
0.670967
-0.824720
0.169038
0.679392
-0.575058
0.575654
-0.748306
0.937799
-0.925837
-0.092606
-0.406292
0.464917
0.855876
0.475894
0.859033
0.240139
0.371835
-0.544674
0.461044
0.303281
-0.527678
0.154853
-0.918820
0.780054
0.973864
-0.197022
-0.468327
0.873357
0.779512
-0.322744
-0.249488
0.450479
-0.147464
0.919550
0.129871
0.277478
0.495204
0.381565
0.215277
0.569368
-0.711041
0.808985
0.034285
-0.855165
0.284878
-0.106683
0.384974
-0.343287
0.348644
-0.153982
0.959994
0.820966
-0.999129
-0.958826
0.601020
0.974735
-0.155848
-0.867307
0.848092
-0.376336
-0.190051
-0.401396
-0.925857
0.662486
-0.481846
0.204014
-0.060036
-0.986641
-0.414421
-0.844760
0.582726
-0.125462
0.964225
-0.382989
0.019373
0.249104
0.510328
-0.595653
0.905817
-0.141028
0.250365
0.865811
-0.320062
0.251236
0.906985
-0.719042
0.225971
-0.248864
-0.586349
0.074063
0.374792
0.223592
0.672660
0.448943
-0.113914
-0.809178
-0.347042
0.826050
-0.795819
0.238536
0.981290
0.786907
-0.886926
0.945515
-0.596082
0.132447
0.194619
0.914246
0.536794
0.100436
-0.226782
-0.212842
-0.033753
0.453156
-0.961606
-0.126768
0.734114
0.264358
0.624360
-0.852243
-0.661579
-0.000831
0.371365
-0.988903
-0.551888
-0.742549
-0.798081
0.101070
-0.916499
-0.593900
-0.660394
-0.935209
-0.806993
-0.547320
-0.989694
-0.403076
0.585127
0.204925
-0.488829
0.121921
-0.694639
0.284389
0.909079
0.271608
-0.262463
0.947466
-0.855168
-0.528349
0.211831
0.769208
-0.380577
0.550268
-0.231623
0.990788
0.561365
0.216489
-0.751761
0.763284
-0.682442
-0.668261
-0.830617
-0.342836
-0.603470
-0.637610
0.109845
-0.593164
-0.040685
-0.305028
0.611761
0.470344
0.814139
0.916439
-0.240374
0.730736
0.195132
0.498826
0.680906
0.334221
0.964072
-0.114714
0.102778
-0.416499
-0.564446
0.871155
-0.425711
0.996919
0.087644
-0.177472
0.760203
0.405202
0.154267
0.929587
-0.937634
0.550797
-0.708023
0.172211
0.957634
0.248582
0.869142
0.574166
-0.273677
0.688583
0.492691
0.482419
0.416616
-0.323840
-0.030936
0.083495
-0.991183
-0.066853
0.968781
0.111595
0.516647
-0.595665
-0.017250
-0.909064
-0.598746
-0.929606
-0.086536
-0.838542
0.475596
-0.932269
-0.908956
0.537962
0.618530
-0.616013
-0.283506
0.581554
0.632655
-0.424317
0.145526
-0.643834
-0.738208
-0.367605
0.832739
0.671481
0.307321
-0.198192
-0.245024
0.316138
0.734955
-0.276243
-0.572266
0.251602
0.128092
0.410484
0.342538
0.529346
0.480878
-0.743999
0.690804
-0.043526
-0.676266
0.787625
-0.499230
0.942818
-0.836793
0.202936
0.518394
0.799157
0.782235
-0.335650
-0.844639
-0.956600
0.296053
0.988009
0.714881
-0.396626
-0.210182
-0.530142
0.919512
-0.475228
0.193615
-0.652754
0.776374
-0.678293
0.757730
0.118912
0.851053
0.238608
0.376876
0.548279
-0.800532
0.698568
0.322055
-0.312152
0.640870
0.488562
0.894411
0.159688
0.287754
0.676096
0.823308
0.443026
0.719496
0.119361
0.431036
0.434377
0.722735
-0.779147
0.904235
0.642247
-0.254374
0.097850
0.989493
-0.478000
0.419557
0.747223
0.645512
0.276874
-0.009781
0.017332
-0.183118
0.185315
-0.279489
-0.856365
0.871443
-0.644495
0.624746
0.764564
0.514707
-0.087496
0.440660
0.338014
-0.644470
0.160156
-0.542625
0.786566
-0.405466
-0.819891
-0.992581
-0.501231
0.822356
-0.246955
0.596618
0.811849
0.279645
0.022424
0.565152
-0.077503
-0.708303
-0.450357
0.938161
0.105680
0.732182
-0.353090
0.235418
0.596254
0.001633
-0.139827
0.360817
-0.483660
0.772677
-0.198523
0.854354
-0.871793
0.961633
-0.688271
0.914773
-0.443833
-0.508162
0.922193
0.054936
-0.685806
-0.320164
-0.341020
-0.866356
0.953380
0.666428
0.683642
-0.133412
0.958118
-0.763580
-0.194635
0.054416
0.955841
0.444280
-0.710808
0.552086
-0.554095
0.149365
-0.087088
-0.037748
-0.077958
0.714389
-0.183394
0.050250
0.676022
0.128335
-0.034977
-0.767811
0.620173
-0.108187
0.294702
0.942065
0.563232
0.937039
-0.941232
0.512736
0.606318
0.751279
-0.614485
0.561571
0.975549
0.177003
-0.385311
0.931381
-0.378725
-0.096119
0.483484
0.067195
-0.946753
-0.603605
-0.970552
-0.024711
-0.889216
-0.153946
-0.974461
0.786806
0.974389
-0.004837
-0.973317
0.600287
0.877785
0.304496
0.527277
0.440200
0.244776
0.592983
-0.040480
-0.148199
0.334867
0.331948
-0.587872
0.310408
-0.491057
0.026817
0.241805
0.130233
0.930698
-0.274711
-0.802571
0.983945
0.121684
-0.773124
-0.040766
0.232469
0.072930
-0.013264
0.026299
0.053038
0.976008
0.036641
-0.359808
0.853073
-0.655769
-0.825567
0.299885
0.589790
0.760142
-0.753695
-0.559604
0.095009
0.578252
-0.147476
-0.594567
-0.912789
0.879342
0.647238
0.217444
0.810040
-0.627473
0.414873
0.793985
0.494211
0.641749
-0.246775
-0.266292
-0.277614
0.738647
0.744278
0.760312
0.713291
-0.215927
-0.590477
0.572959
0.129365
-0.425331
-0.140240
-0.282215
-0.665168
0.106094
0.158202
0.429857
-0.315646
-0.989274
0.835290
-0.228435
0.890068
0.482528
0.989010
0.700108
0.855054
0.403883
0.494085
0.353935
0.053338
-0.744998
-0.925091
0.758639
0.983501
0.827499
0.528708
0.701533
-0.393893
0.926179
0.265054
0.734730
-0.499119
-0.875153
-0.547452
-0.164279
0.230941
0.610750
-0.734422
0.915295
0.621476
-0.899132
-0.313139
0.511543
0.583396
-0.324130
0.211517
0.435556
-0.918293
-0.289483
-0.207512
0.130165
-0.042165
-0.131565
-0.110314
-0.061541
-0.314450
-0.592005
-0.363014
0.291688
-0.665802
0.902052
0.026431
-0.164921
-0.973101
0.478979
0.670800
0.257840
0.089729
0.936378
0.173136
-0.288796
-0.962754
0.859996
-0.777252
0.620642
-0.465327
0.433254
0.062588
-0.377969
-0.853515
0.846949
0.741004
0.093197
-0.289531
-0.373300
-0.968445
0.396031
0.034707
-0.331460
-0.312281
0.368905
-0.429408
0.714150
-0.796017
-0.402509
0.193128
0.874783
0.855331
-0.717143
0.811161
0.028467
-0.005939
0.848407
-0.111537
0.216809
0.469049
0.424329
-0.348793
-0.471859
-0.960052
-0.208651
-0.625051
0.780952
0.884547
0.085418
-0.592348
0.916101
-0.518551
0.442359
-0.415358
0.169168
-0.188737
0.155234
-0.116683
0.015247
0.752725
-0.923554
-0.109970
0.608057
-0.640698
-0.298809
-0.363476
0.353363
-0.450402
0.524987
-0.429828
-0.981353
-0.050684
0.221379
-0.453212
-0.010735
-0.987271
-0.078263
-0.229783
0.897275
-0.992845
0.177868
0.813377
-0.511397
-0.379773
-0.601982
0.657771
0.431491
0.553252
-0.458912
-0.553263
0.305977
-0.382466
0.336767
-0.085966
-0.023164
-0.962042
0.550558
-0.669800
-0.412444
0.075545
-0.099628
-0.393797
-0.975139
-0.878249
0.152991
0.014126
-0.865520
-0.925272
0.784342
-0.968244
-0.918117
-0.037789
0.845132
-0.429514
0.582438
-0.756849
-0.771743
0.013929
0.796403
-0.230655
0.460666
0.102380
0.386879
-0.202567
-0.983586
-0.636285
-0.164609
0.566972
-0.306085
0.422947
-0.357483
0.594286
-0.970850
-0.332622
0.716038
0.182141
0.681504
0.850518
0.256869
0.465846
0.882274
0.338751
-0.571943
0.727406
0.909237
-0.989505
0.970556
-0.862506
0.024423
0.766959
-0.093161
-0.514910
-0.130661
-0.706282
0.282523
-0.114246
-0.342567
-0.882086
-0.547274
0.351348
0.540861
0.095243
-0.054366
0.570011
0.762621
-0.338328
-0.247848
0.444125
-0.487810
-0.990979
-0.090029
-0.605536
0.347773
0.338028
-0.878131
0.257010
0.348523
-0.907574
0.394504
-0.627054
0.859385
-0.698656
-0.141964
-0.271276
-0.404938
-0.859442
0.614478
0.252495
-0.741528
-0.932796
-0.396157
0.799334
0.162447
0.549477
0.369345
-0.074931
-0.788851
-0.878502
-0.630806
-0.276661
-0.869481
0.279165
0.117803
0.478292
-0.382807
0.239672
-0.264698
0.965715
0.332098
-0.870193
-0.661339
0.191483
-0.568850
0.196697
0.920208
0.026212
0.337255
0.534686
-0.721293
0.595728
0.601890
-0.117450
0.395062
-0.235663
-0.567973
-0.235593
0.689406
-0.356824
-0.114096
-0.941400
0.366515
0.016423
0.337764
-0.515682
-0.505285
0.954957
0.723990
0.230018
0.920672
0.056088
0.359824
-0.740666
-0.752429
0.790975
0.456031
-0.832221
-0.182813
-0.206714
0.702465
0.095894
-0.610986
0.304355
0.978444
0.784075
-0.931308
-0.589529
-0.451518
0.758098
0.053647
0.434386
0.816698
-0.579837
-0.549190
0.154462
-0.095519
-0.054475
0.109419
-0.371529
-0.824457
0.030091
0.684559
0.535367
0.289425
0.932131
0.326342
-0.254545
-0.900090
-0.856471
0.538741
0.802375
0.239423
0.927755
0.106730
0.217867
0.711831
0.175422
0.628338
-0.739687
-0.066480
-0.318015
0.694699
-0.249782
0.102148
-0.854491
0.904680
-0.993372
0.091034
0.014098
-0.364901
0.266577
-0.955810
-0.680341
-0.198056
0.333614
-0.748211
-0.871714
-0.920930
-0.648301
-0.728185
0.617811
-0.845926
0.511237
0.545566
0.260803
-0.270896
0.257397
-0.555361
-0.612038
0.551797
0.418607
0.088289
0.261269
-0.831177
-0.813133
0.400402
-0.944837
-0.851797
-0.551048
0.038741
-0.216698
0.715529
0.082931
0.102961
-0.482526
-0.583455
0.354751
-0.354240
-0.504386
0.706450
-0.082426
-0.886575
0.860524
-0.571188
0.658991
0.133308
0.195438
-0.034750
0.606414
0.564217
-0.517042
-0.023843
-0.396356
0.691801
0.084765
-0.303641
0.004425
0.071903
-0.155438
0.453377
-0.889356
0.627864
0.168906
0.193575
-0.269175
0.686380
0.610120
-0.914424
-0.667861
-0.894266
0.792025
0.249714
-0.780841
0.664393
0.722720
0.926032
-0.178161
-0.115599
-0.151152
-0.614263
-0.586388
0.290451
0.302977
-0.079448
-0.110908
-0.694014
0.602941
0.879568
0.377889
-0.552497
0.332944
0.488533
-0.924633
-0.498150
-0.317892
-0.193808
-0.811770
-0.707773
-0.108233
-0.479631
-0.591915
-0.272371
0.694108
-0.498851
-0.800192
0.285256
-0.569162
0.305051
-0.493825
0.437757
0.482913
-0.329808
-0.467605
-0.299629
0.543431
0.393589
0.006357
0.146372
0.273157
-0.615754
0.593875
-0.393899
0.872779
0.669242
0.107951
-0.445113
-0.524566
0.296182
-0.142762
0.305747
0.700648
0.088108
-0.986874
0.523077
0.813091
-0.564469
0.097606
-0.509923
0.524723
0.344037
0.657401
-0.060801
0.957141
-0.834276
0.639570
0.500572
0.559313
-0.354073
-0.353056
-0.167531
0.030173
-0.759180
0.438571
-0.097048
0.910062
-0.453478
0.443557
-0.669410
0.837068
-0.661930
0.758000
0.630837
0.572492
0.826139
0.302972
0.546631
-0.769906
-0.714459
0.779818
0.688579
0.601424
0.416971
-0.372222
0.558565
0.582695
-0.732652
0.059137
0.142007
-0.086725
0.706081
0.974477
0.943448
0.946901
0.413047
-0.167882
0.826674
0.959022
-0.647411
-0.690510
0.804389
-0.388100
1.125248
0.554388
-0.761937
0.856256
-0.292067
0.571449
0.989872
-0.011452
0.341142
0.678451
-0.410029
-0.241887
-0.693771
-0.851464
-0.659192
-0.426422
0.207673
0.482815
0.486853
-0.086246
0.457292
0.400367
-0.166769
-0.082051
-0.645741
-0.193770
-0.184548
-0.394119
0.164899
-0.290490
0.203659
-0.013055
-0.903846
0.349357
-0.245925
-0.198874
-0.079194
-0.256053
0.789673
-0.738052
-0.577602
-0.620355
0.020062
-0.271373
-0.471819
0.360870
0.302205
0.735853
-0.156315
-0.224468
-0.374969
-0.661442
-0.602547
0.614477
0.129120
-0.507063
-0.646780
-0.954535
0.098940
0.209694
-0.338597
-0.732843
-0.856818
-0.272884
0.616493
-0.102743
0.528242
-0.462701
0.641204
0.317915
-0.200753
-0.936398
0.697560
0.819309
-0.207771
-0.774259
0.180179
-0.927508
0.941405
-0.907441
0.017051
-0.358253
-0.749217
0.079048
-0.793554
0.473213
0.599772
-0.628872
0.525372
-0.324070
0.537291
-0.869210
-0.056954
0.680473
-0.142094
-0.440461
-0.422270
-0.613852
0.096838
-0.781066
0.704063
0.896085
-0.717464
0.401623
0.715393
0.078448
0.660256
-0.057586
0.187809
0.599963
-0.219378
-1.032970
-0.774010
0.287738
0.158245
-0.647875
-0.215623
-0.245539
-0.329042
-0.762185
0.430358
-0.791751
-0.631394
-0.626595
0.888723
0.226512
-0.067056
-0.533547
0.612660
-0.970218
-0.314613
0.316723
0.925867
0.015107
-0.114320
0.720893
-0.962418
-0.768474
-0.693957
0.071268
1.001075
0.521417
0.257274
-0.825074
-0.255512
-0.579874
-0.543556
0.440978
0.174560
0.127402
0.678795
-0.395080
0.335651
-0.952599
-0.021675
0.224374
0.273913
0.911270
0.690827
-0.113427
0.941052
-0.560197
-0.641220
1.036301
0.510031
-0.043636
0.513462
0.494508
0.414106
-0.885355
-0.324280
0.308422
0.571120
0.866139
0.336844
-0.798177
-0.716603
0.793288
0.642803
0.457959
-0.079311
0.321598
-0.937121
-0.743659
0.368999
0.041204
0.480715
-0.357087
-0.047527
0.199808
0.652902
0.042435
0.625773
0.834034
-0.102561
-0.003062
-0.201137
-0.665802
-0.630662
1.044688
-0.648419
-0.119717
0.123796
0.814912
-0.259284
-0.539360
-0.983263
0.024115
-0.746073
0.659540
-0.517926
0.174617
-0.018862
-0.455047
0.430957
-0.649863
0.586156
-0.088823
0.022867
-0.495242
-0.912161
-0.382740
0.490690
0.693726
-0.626564
-0.763581
-0.488706
-0.053719
-0.506102
-0.200778
-0.170847
-0.225149
0.679019
0.955314
-0.410235
-0.580264
-0.584047
-0.393498
0.443852
-0.330119
-0.733958
0.925926
0.844497
0.247180
-0.529122
0.275454
0.533278
-1.020273
-0.903345
-0.474157
-0.502295
-0.864801
0.036481
-0.948907
0.903597
0.333790
-0.816789
-0.613024
-0.733997
-0.327962
0.216171
0.109480
0.456486
-0.095214
0.064794
-0.953748
0.324523
0.480747
-0.347246
-0.231626
-0.849372
-0.081204
-0.305700
1.009232
-0.959106
-0.113825
0.004014
0.555634
-0.021235
0.203399
-0.813288
0.691111
0.622952
0.432200
0.808491
0.594520
-0.176959
-0.945633
-0.956056
0.112744
-0.252257
0.279307
-0.777776
-0.795770
-0.815906
0.287018
-0.749519
0.508616
-0.232235
-0.096765
-0.723009
-0.081608
0.822030
-0.072297
-0.162541
0.938167
-0.911952
-0.814505
0.749660
0.358714
0.641803
-0.895042
0.176560
0.369851
0.569376
0.010512
-0.000789
-0.593697
0.088364
0.052752
0.519048
0.836107
-0.667941
0.741272
-0.959663
-0.483847
0.028289
-0.709182
-0.975231
0.796054
0.194053
-0.698240
-0.285554
0.016083
0.273051
0.627963
0.004089
0.409521
0.812059
-0.244612
-0.231796
0.453862
-0.139654
0.944763
-0.176287
-0.568133
-0.032982
0.822924
-0.161829
-0.944619
-0.124324
-0.642782
0.891488
0.207735
-0.901510
0.931825
0.723888
0.126779
-0.777357
0.748657
-0.077167
0.416696
-0.949583
0.637279
-0.567221
0.323468
0.265242
0.436869
-0.267011
0.077302
-0.807743
0.501193
-0.468836
0.052603
0.445956
0.354877
0.484470
-0.587026
0.177801
-0.677359
-0.531645
-0.946523
-0.320141
-0.640157
0.261213
-0.221651
-0.708332
-0.014899
0.905128
-0.485689
-0.266242
-0.172038
0.931007
-0.215825
-0.534759
-0.636213
-0.892356
0.730483
0.800655
-0.159367
-0.192215
0.992912
-0.658174
0.338949
0.045515
0.787782
-0.306173
-0.470015
-0.799244
0.871628
-0.147375
-0.330889
0.925105
0.532484
0.028954
0.186318
-0.689167
0.320622
-0.828581
-0.784039
0.834933
-0.094823
0.043923
0.765940
0.689352
0.509164
-0.870273
0.796996
0.239647
0.930382
-0.362371
-0.952567
0.923294
-0.020545
0.386382
-0.031191
-0.232763
-0.919791
0.498794
-0.032008
0.951837
-0.648581
0.637103
0.876942
0.883903
-0.333943
0.063260
-0.805263
0.986679
0.234679
-0.589302
0.821612
-0.860144
0.454621
0.587552
0.829208
-0.036215
0.717279
0.626204
-0.796568
0.647661
-0.736167
-0.749135
0.570956
0.243287
0.637247
-0.460235
-0.989476
0.717456
-0.961442
-0.021484
0.669292
-0.610023
-0.384381
0.546235
-0.726119
0.281676
-0.390505
-0.531383
0.268354
0.844174
-0.120685
0.089966
0.984030
-0.666064
-0.322481
0.813238
0.297721
-0.605202
0.439442
0.501154
-0.957541
0.703275
0.752019
0.613415
-0.053438
0.389266
-0.846821
-0.042914
0.106722
-0.808262
0.935602
-0.223986
-0.418285
-0.448779
-0.677751
-0.144404
0.832896
-0.068256
0.324213
0.101251
-0.224082
-0.796472
-0.808783
-0.240052
-0.462535
-0.131264
-0.426814
0.835186
0.263534
-0.987372
0.336340
0.305993
0.715902
0.088358
-0.080592
-0.337536
-0.522376
0.072587
0.619550
0.584346
0.264325
0.555151
-0.639640
0.846040
-0.893628
-0.317392
-0.298364
0.939269
0.614352
-0.974151
0.040520
-0.609730
-0.770623
0.231737
0.150217
-0.233158
-0.899527
0.723403
-0.397972
0.364006
0.736030
0.938368
-0.330001
0.451932
0.026727
0.589407
-0.885604
0.504351
-0.338005
0.733946
0.088697
0.926320
0.289097
0.449056
0.772360
0.395470
-0.868335
-0.526004
0.334738
0.746017
-0.500155
-0.624742
-0.863714
-0.270778
0.606995
0.286503
0.496064
0.707468
0.009906
-0.901907
0.071474
-0.254064
-0.963539
0.741473
-0.802131
0.063187
0.330881
-0.687735
-0.432462
0.992876
-0.953789
0.656235
0.919196
0.335308
0.105291
0.691556
-0.269222
0.236956
-0.834448
-0.934484
-0.017027
-0.334604
-0.559226
0.119259
0.394619
-0.952231
-0.594238
-0.109317
0.755236
0.329936
-0.115496
-0.292751
-0.841303
0.022329
-0.459768
-0.668479
-0.924338
0.783075
-0.432533
-0.344038
0.891940
-0.282052
-0.687803
0.811136
-0.946744
0.417488
0.502692
-0.215966
-0.345557
0.668243
-0.150450
0.637416
-0.666360
0.290324
-0.243325
0.728258
0.338093
0.061516
-0.359231
0.090422
-0.424802
0.579764
0.892087
-0.288242
-0.394999
-0.499494
0.210214
-0.278624
-0.612712
0.770920
0.377338
-0.720772
-0.511131
0.689535
-0.909636
-0.457875
0.107022
0.593056
0.326159
0.761466
0.261299
-0.824290
0.398882
0.594939
0.466034
-0.945364
0.299669
-0.204108
0.212010
0.836876
0.788429
0.787073
0.458706
0.751392
-0.312183
-0.853278
-0.696823
0.734992
-0.095816
-0.306994
0.505912
-0.718478
-0.027766
0.994781
0.971056
0.062599
-0.463094
0.078079
-0.344345
0.863066
-0.160455
0.916954
-0.968079
-0.633464
0.589540
0.604571
-0.503641
-0.168980
-0.699131
0.717695
-0.164719
-0.821335
0.620079
-0.735140
-0.978656
-0.756115
-0.490110
-0.670397
0.978877
0.414074
0.022609
0.484789
0.695596
0.994843
0.479569
0.666652
0.057442
-0.983524
-0.255269
0.713097
0.872687
0.718279
0.703031
0.942473
0.895523
0.089856
0.416219
-0.722688
1.154969
0.955330
0.930501
-0.292173
0.931597
0.536738
0.081346
0.962336
0.780623
0.591237
-0.708061
0.759500
0.005311
0.314548
0.244288
-0.299094
0.309391
-0.276142
-0.632441
-0.633167
-0.267316
0.173666
-0.973012
-0.400445
-0.466317
0.512480
-0.506524
-0.426854
0.087900
1.193474
-0.174036
-0.176132
0.686524
-0.335387
0.583222
0.631829
-0.798649
-0.335431
0.594165
0.981974
-0.744195
0.886104
0.741474
0.261116
0.200652
-0.014238
0.962022
-0.489957
0.701970
-0.752615
-0.198757
-0.624111
0.262898
-0.137720
-0.026239
-0.759437
-0.249580
0.688663
-0.253146
0.550930
0.569336
0.393653
-0.652329
0.262713
-0.941734
0.930894
-0.105458
-0.740383
-0.404538
-0.511293
-0.758409
-0.148733
-0.625190
0.983065
-0.887617
0.575462
-0.096460
-1.045967
-0.945531
-0.410407
-0.792984
-0.026648
0.042004
0.954136
1.043602
-0.750917
1.007776
-0.472816
0.806244
-0.358006
-0.895313
0.375580
-0.964353
-0.547642
-0.361707
-0.906087
-0.616748
0.532835
-0.646470
-0.021286
-0.978459
-0.404879
0.829982
-0.603648
-0.532489
0.816309
0.892979
0.477669
-1.071121
-1.108896
-0.839510
-0.405591
0.135943
0.206600
-0.728931
-0.022292
0.507561
-0.749093
0.524864
0.358326
-0.107100
0.629551
-0.266094
-0.071453
-0.918090
0.372199
0.022460
-0.534838
-0.094966
0.375990
0.443876
-0.073424
0.946168
0.232426
0.262342
-0.286681
0.232054
0.321400
-0.758004
0.299689
0.317490
-0.840989
0.602833
-0.565003
0.642080
0.920366
0.310651
0.227706
-0.828727
-0.164484
-0.413968
0.064173
-0.534933
0.319938
0.992720
-0.453023
-0.307862
0.015180
0.012139
0.597172
-0.544672
-0.426779
-0.392454
-0.534264
0.816328
1.042075
0.180807
0.089831
0.096444
-0.069497
-0.880183
-0.487281
0.309551
0.832843
-0.159806
-0.019767
0.753209
-0.824109
-0.767016
0.924482
0.011406
-0.180985
-0.011345
0.476473
-0.861046
-0.018625
-0.976550
-0.168909
0.979772
0.151299
-0.502154
-0.551089
0.311315
-0.161942
-0.283446
0.226146
-0.093203
0.580623
-0.906765
0.960476
-0.350631
-0.653333
-0.591468
0.974081
-0.820490
0.298816
0.004404
0.932719
0.474707
0.237388
0.857201
-0.513887
-0.943597
-0.154144
0.962587
-0.804643
0.828436
1.148773
0.151182
0.731703
-0.066351
0.281291
-0.922286
-0.520242
-0.498214
-0.051517
0.709219
0.236191
-0.398609
0.902286
0.120461
0.267532
-0.751047
0.579084
0.291704
-0.571537
-0.122100
-0.703892
-0.638819
-0.647393
0.533496
-0.781618
-0.161280
0.589899
0.163277
-0.209729
0.891308
-0.236043
-0.298950
-0.267779
-0.385455
0.751073
-0.768031
0.005092
-0.700076
-0.440110
0.841530
-0.943087
0.853497
-0.513650
0.959199
0.024049
0.803972
-0.791849
-0.396868
0.095676
-0.363386
0.481032
0.391784
-0.002205
0.833640
-0.074721
0.312016
-0.226685
-0.469933
-0.665274
0.315560
-0.796674
0.078779
-0.764123
0.122365
0.805394
-1.041625
0.312903
-0.206770
-0.628498
-0.973355
-0.297797
-0.550902
0.930233
0.213598
-0.591703
-0.045719
0.017570
-0.383552
0.557413
-0.886754
0.253062
0.038446
0.505030
-0.774188
0.014712
-0.469369
0.586842
0.538139
-0.113622
0.726391
-0.052001
0.224590
-0.089027
0.183637
-0.635178
-0.186760
0.368537
0.751681
0.635457
0.741293
0.788305
-0.677406
-0.809609
0.718538
0.536192
-0.401312
-0.327181
-0.446238
0.215136
-0.769767
-0.332992
-0.456870
0.281902
-0.682413
-0.182518
-0.758884
-0.311582
-0.719169
0.772169
0.680005
0.895429
-0.291526
-0.199482
-0.144727
1.001520
0.170889
0.674421
0.331555
-0.111568
0.279746
0.072848
-0.323262
0.602340
0.263239
-0.604724
0.138532
0.861927
0.068096
0.692294
0.077063
0.298328
-0.617519
0.534016
-0.385372
-0.397600
-0.760481
-0.239705
0.220747
-0.549594
-0.607018
-0.318479
-0.616054
0.100308
0.494349
0.236822
0.078752
-0.372905
-0.103823
-0.589693
0.515527
-0.824076
0.483155
-0.807735
0.778264
-0.253606
-0.412459
-0.083204
-0.391679
0.655637
-0.390910
0.685385
-0.046035
-0.031608
0.230646
0.520972
0.499731
0.494962
-0.771256
-0.366583
0.945368
-0.378274
0.314938
-0.670686
0.718030
-0.209785
0.566137
-0.203218
0.417310
-0.537686
0.207089
-0.067163
-0.361762
-0.309755
0.125102
-0.583499
0.436639
0.712643
0.333297
-0.955040
0.368280
0.942387
0.730345
-0.677755
-0.089222
-0.039009
0.843218
-0.589491
-0.544047
-0.928038
0.043927
-0.598679
-0.306313
-0.641136
-0.269365
-0.588282
0.149079
-0.703228
0.208500
-0.433611
-0.240914
-0.584411
0.499226
0.397323
0.105834
-0.375673
0.813825
-0.457527
-0.663029
0.147122
-0.412567
0.705251
0.089509
-0.682223
-0.972504
-0.999713
0.278768
0.870713
-0.589204
0.734721
0.942675
0.454723
-0.863958
-0.363637
0.813587
-0.133322
0.048080
-0.037334
0.163449
-0.743420
0.529055
0.922535
-0.327830
0.028281
0.319859
0.778004
0.652608
0.133684
-0.679524
0.989579
-0.719194
-0.092091
0.694829
0.370314
0.225686
0.722325
0.370601
-0.495545
0.593039
0.781398
-0.760824
0.535714
0.236121
-0.624782
-0.827924
0.049708
0.241895
0.220157
-0.987626
-0.594655
0.476737
0.541429
-0.672120
-0.851094
-0.430290
0.647739
0.926910
-0.777682
-0.218577
-0.752614
-0.788103
0.062228
0.155295
0.906727
-0.567458
-0.619019
0.629052
0.803144
-0.114564
0.222090
0.584541
0.124612
-0.242196
-0.179338
0.499830
-0.070120
0.870370
-0.258275
-0.849963
0.882744
0.147070
0.626774
0.424173
0.474950
0.775680
0.993883
0.122689
0.702590
-0.783798
0.904112
0.949976
-0.571901
-0.033660
0.105271
-0.665174
0.398882
0.486253
0.963877
0.202025
-0.628311
0.185968
-0.213433
0.496301
0.943772
0.607229
-0.003870
-0.126348
0.477598
0.737855
0.023689
0.360342
-0.115075
-0.349537
-0.215485
-0.640125
-0.573856
-0.221601
0.482564
-0.871266
-0.005400
0.386676
-0.921290
0.422699
-0.646984
0.183981
0.757525
0.751898
-0.329766
0.721402
-0.046077
0.041923
-0.092630
0.740490
-0.461776
-0.148858
0.347718
0.534354
0.724794
-0.174683
0.272209
-0.251517
-0.814341
-0.842866
0.398947
-0.029826
-0.482990
0.825090
0.748572
0.999574
0.953824
-0.256827
0.386250
-0.967466
-0.834128
0.739266
0.216516
0.923397
0.491164
0.886750
0.644800
-0.554913
-0.071327
-0.447830
-0.814424
0.466897
0.403312
0.533295
0.001250
0.128106
-0.641389
-0.726541
0.876589
-0.455730
-0.569406
0.275536
0.514444
-0.052396
0.100626
0.263016
-0.052822
0.054450
-0.993811
-0.666572
0.086984
-0.827939
-0.927306
-0.696500
-0.904542
0.563858
-0.809750
0.740257
-0.991056
0.118923
-0.707573
-0.805479
-0.414181
0.695739
0.727816
0.587070
-0.176155
-0.913573
0.860529
-0.299566
-0.369303
-0.708877
0.975970
-0.854859
0.238726
0.076596
0.408157
-0.814096
-0.868954
0.414345
-0.480668
0.218031
0.586406
-0.407974
0.521531
0.681864
-0.827847
0.732067
0.442433
-0.833068
-0.167193
0.702102
-0.653097
0.404050
0.431668
-0.892549
0.003592
-0.765869
-0.826408
-0.135879
-0.065435
-0.195711
0.155244
-0.089465
-0.050571
-0.606029
0.987131
-0.642414
-0.420125
-0.881823
0.771931
0.099208
0.336208
0.358337
0.707530
-0.123575
0.042304
0.849222
-0.442927
-0.550125
-1.000500
0.387777
-0.821054
-0.625220
-0.183255
0.587156
-0.541540
0.820338
0.821287
-0.367948
-0.315541
-0.244147
0.436340
0.839704
0.666387
-0.614230
-0.766325
0.653518
-0.256645
-0.186450
0.771696
-0.484713
0.837160
0.089394
0.763991
0.484963
0.850508
-0.190780
0.346505
-0.550120
0.305415
0.472888
1.009497
0.618230
0.834351
-0.247871
0.140170
-0.707188
-0.427533
-0.038543
-0.075137
0.256926
0.717310
-0.638796
0.096630
0.383697
-0.253027
0.330304
0.037216
0.552909
-0.834130
-0.346985
-1.114690
-1.096786
0.729610
0.711131
0.666836
0.930020
-0.123735
0.087977
-0.506516
-0.765577
-0.425232
-0.646998
0.722221
-0.590881
0.105131
-0.137608
-0.298070
0.677598
0.823849
0.626794
-0.065476
0.541159
0.987998
-0.968846
-0.075144
-0.202449
0.297321
0.855422
-0.958903
0.360727
-0.277888
-0.836688
0.602776
-0.355766
-0.806648
0.217634
-0.350733
-0.034204
-0.665762
-0.012126
0.072424
-0.090995
0.340876
-0.205355
0.318124
-0.553993
0.657037
-0.979946
-0.876395
0.480886
0.646848
0.058129
0.022045
0.640327
-0.032159
0.850096
-0.781768
-0.586335
0.742838
-0.553823
0.864001
-0.457110
-0.111839
0.494769
0.426926
-0.001234
-0.259499
0.938012
0.839402
0.074739
-0.074114
-0.088174
0.983744
-0.733238
0.706471
0.301868
-0.287230
0.363507
0.321923
-0.163625
-0.155607
-0.025748
0.889921
0.895560
-0.418597
-0.064212
0.659306
-0.177036
0.408680
0.668154
0.598461
0.370092
-0.547104
-0.605419
-0.091445
0.770026
0.330767
0.649057
0.708038
0.170169
-0.276204
-0.366076
-0.918006
-0.292460
-0.099313
0.788465
-0.990592
0.613456
0.151972
0.326041
-0.547160
1.025384
-0.701411
-0.673018
0.750452
-0.237218
0.330694
0.614739
0.812664
-0.306769
0.404261
0.445700
-0.846772
0.800722
0.840281
0.061783
0.570748
0.171048
-0.289160
0.278786
-0.658783
0.434636
0.912710
-0.576789
-0.857824
-0.186604
-0.788324
-0.851748
-0.562019
0.401542
0.598426
-0.042177
0.312524
0.607983
0.169326
0.118636
-0.329915
-0.469359
-0.083361
-0.425356
0.311787
-0.702590
-0.990416
0.465015
-0.901867
0.849865
-0.473201
0.668881
0.020913
0.237639
-0.052334
0.362130
-0.327725
-0.139624
0.785341
-0.205150
0.677324
1.058583
0.067291
-0.810507
0.245618
-0.721753
-0.086641
-0.426576
-0.801960
-0.811524
0.947801
-0.072405
-0.252535
-0.157547
0.482582
-0.940747
0.139864
0.492166
0.524268
0.237996
0.342031
-0.948933
-0.093123
-0.637056
0.288706
0.854543
0.725073
0.968062
-0.256172
0.524361
-0.194589
-0.617949
0.319227
0.536797
-0.620676
-0.186254
-0.728992
0.478432
0.629863
-0.580235
0.664951
0.517721
0.326531
-0.587584
-0.625275
-0.176336
-0.528331
0.514588
-0.684170
0.995937
-0.247415
0.657861
-0.952996
0.659462
-0.979196
0.370047
0.598875
0.737315
0.180528
-0.954190
-0.045386
-1.207295
-0.359392
-0.228523
0.862190
0.119490
0.674623
-0.998607
-0.426443
0.206044
-0.588155
-0.761492
-0.247133
0.767478
-0.349076
0.127591
-0.408858
0.122592
-0.357820
-0.093028
0.118529
0.394764
-0.435167
0.191107
0.133635
-0.438827
-0.526662
-0.563713
-0.894273
0.733650
-0.216216
0.625228
0.939361
0.459512
-0.591307
0.681458
-0.478296
0.968796
0.673113
0.095261
0.203942
-0.885940
0.333769
0.956809
0.881538
0.984693
0.084401
-0.527320
0.107285
0.726580
0.379653
-0.765605
0.187021
0.922845
0.280669
-0.933652
-0.461827
0.797387
-0.262364
-0.179350
0.744168
0.600339
-0.520862
0.543840
-0.044270
-0.213580
0.229685
0.477435
-0.215682
-0.068100
-0.427304
0.988261
0.045960
0.906465
0.945070
-0.072502
0.891157
0.029470
0.400179
-0.000226
-0.236286
-0.343412
0.091656
0.834142
-0.325419
-0.553840
-1.029175
0.088879
-0.568543
-0.275709
-0.884938
-0.840211
-0.701203
-0.449032
0.759302
0.293457
0.366490
0.003538
-0.229108
-0.849191
0.935438
0.343588
-0.860931
-0.018601
0.250052
-0.915861
0.908897
0.126659
0.052398
0.154531
-1.047926
0.686850
-1.072955
0.175947
0.561678
-0.291699
0.873289
0.646733
-1.025683
-0.605639
-0.428338
-0.817010
-0.314325
-0.065482
-0.250740
-0.554271
-0.772025
-0.884250
0.449267
-0.001133
-0.733441
0.384705
-0.657545
-0.594372
-0.633896
0.619562
-0.560567
-0.936536
-0.457664
0.459844
0.472305
-0.278433
0.356414
0.495700
-0.942332
0.127170
-0.607139
-0.852176
0.017694
-0.448548
-0.296251
0.616905
-0.262387
0.390926
-0.448578
0.486873
0.836655
-0.220603
0.602623
0.285921
0.778264
0.869182
-0.329373
-0.879281
-0.725190
0.054805
0.637527
-0.236327
0.316921
-0.525149
-0.616840
-0.104213
0.320312
0.840991
-0.431208
0.557591
0.059415
0.052581
0.774383
-0.918803
0.608873
-0.521117
0.698102
-0.653514
0.869809
-0.750476
0.833359
0.706463
0.028922
0.435982
-0.007615
-0.192814
0.305164
0.663011
-0.072095
0.579973
-0.300258
-0.358869
-0.655450
-0.988527
0.088073
-0.287496
-0.092719
-0.591615
-0.446505
0.476073
0.965976
0.614578
-0.468926
0.740358
0.695775
-0.860053
-0.780759
0.393877
-0.513567
-0.910950
0.643401
-0.680208
0.795513
-0.327677
0.755775
-0.212102
0.479509
0.060938
-0.549091
-0.592586
-0.359088
0.150651
0.048545
-0.014538
0.162124
-0.863382
0.697966
-0.930595
-0.454997
-0.748539
0.545479
-0.489021
0.866039
-0.923447
-0.748663
0.561814
-0.783500
-0.529422
-0.044309
-0.297066
-0.440372
-0.400908
0.022726
-0.644859
0.271415
-0.221499
0.143039
-0.249075
0.839439
0.593948
0.158339
-0.519650
-0.255401
-0.793116
0.465813
0.906723
-0.656498
0.163779
0.976129
-0.111495
0.415240
0.521608
0.399484
0.281278
0.598160
0.650821
-0.156908
0.814661
-0.878601
0.798783
-0.482406
-0.318973
-0.602125
0.540320
0.036168
0.669290
-0.681179
-0.820793
-0.579785
-0.841741
0.773155
0.578554
-0.361390
-0.482245
0.785438
-0.895578
-0.575522
-0.871060
0.268201
-0.599393
0.017445
-0.316559
0.922214
-0.583070
0.964719
0.520375
-0.932249
-0.192189
0.335035
-0.810850
-0.393406
0.852629
-0.129822
0.004469
0.392950
0.906346
-0.326241
0.711770
-0.914447
0.093974
0.870030
0.858708
-0.327471
-0.491360
-0.623538
-0.542033
-0.386938
-0.199060
-0.413093
0.881263
0.201547
0.604352
-0.435296
0.123762
-0.978718
-0.470577
-0.355864
-0.910967
0.337234
0.979172
-0.721817
0.943828
0.831801
0.148361
-0.051703
0.224751
0.054706
0.622056
-0.063479
0.140259
-0.283969
-0.193450
-0.001033
0.388559
0.315190
0.375429
0.846526
0.928252
-0.823630
-0.566567
0.809515
0.377917
-0.962215
-0.625781
-0.498321
-0.940933
-0.096359
0.145815
-0.851900
-0.759125
0.124987
-0.573717
-0.815297
-0.043212
0.574644
0.133000
-0.818462
-0.370650
-0.244944
0.118059
0.769609
0.471087
0.924610
-0.231424
-0.140354
0.239799
-0.855994
-0.293828
0.168051
-0.679625
0.139605
-0.022434
0.698292
0.177391
0.351785
-0.800029
0.236458
-0.744574
0.345786
0.384558
-0.503699
-0.529228
0.810842
-0.318995
0.427560
0.385486
0.814005
0.609098
-0.985164
-0.430939
-0.272843
0.784445
-0.959852
-0.348233
-0.446978
-0.100205
0.891566
-0.302973
0.605967
0.059617
0.017403
-0.254428
-0.962816
-0.284305
0.922963
0.388968
-0.084335
0.159421
0.644394
-0.738549
-0.456021
-0.859305
-0.267777
-0.645179
-0.178300
-0.840217
0.740306
-0.364295
0.768882
0.755143
0.204766
-0.503961
0.539588
0.244914
0.147806
-0.907390
-0.855291
0.039372
-0.210363
0.750676
-0.901011
0.807039
-0.503752
-0.863827
-0.477266
-0.580789
0.525141
0.438400
0.578632
0.169535
0.699851
-0.877389
0.310230
-0.567926
-0.522568
-0.868070
-0.408143
-0.782262
-0.232365
-0.639261
0.972880
0.972401
-0.143222
0.512468
0.217315
-0.995417
0.658258
0.424284
0.097381
-0.558211
0.159774
0.159971
-0.781219
0.634804
0.338835
-0.213251
-0.971841
-0.195741
-0.837112
0.606791
0.973794
0.862739
0.729402
0.284024
-0.705187
-0.793167
0.415954
-0.113329
-0.575429
-0.816411
0.247410
-0.602549
-0.844010
-0.895813
0.954267
0.426767
-0.844155
0.562072
-0.247645
0.169752
0.926739
0.865055
-0.648419
-0.881956
0.456978
0.574788
-0.164044
0.485137
-0.620953
-0.001155
0.091927
-0.647160
-0.138416
-0.178671
0.636864
0.156397
0.028162
0.052819
-0.956932
0.452733
0.236408
0.290478
0.755159
0.434942
0.363055
0.661164
-0.292556
0.445116
0.216782
0.426436
-0.388385
0.197589
0.349562
-0.024672
0.296283
-0.193960
-0.473379
-0.867761
-0.708824
-0.094333
0.131084
0.383104
0.258507
0.992668
-0.795567
-0.104628
0.149065
0.232595
0.948190
0.193247
-0.405786
0.206855
-0.358299
-0.490701
-0.457866
0.838499
-0.677718
0.361418
0.411411
0.534068
-0.090706
-0.939631
-0.244466
-0.807207
-0.011294
-0.948183
-0.001167
0.515326
-0.815944
0.290009
-0.579007
0.315139
-0.326887
0.679501
0.307807
-0.122455
-0.425128
-0.542014
-1.020956
-0.463491
0.678887
-0.178258
0.783170
-0.738243
0.409052
-0.761171
-0.883196
0.591894
0.724771
0.390716
0.197314
-0.528914
0.426475
0.952848
-0.336121
-0.584819
-0.995335
0.662712
0.930507
-0.811280
-0.047279
-0.648499
0.503859
0.625834
-0.968999
-0.143811
-0.598615
-0.429456
0.238398
-0.303807
0.143587
-0.041221
0.407523
-0.162048
0.044616
-0.263912
0.248914
0.059162
-0.633437
-0.251393
-0.552350
0.563877
0.219693
0.874125
0.516725
0.883572
-0.710694
0.521390
0.546285
-0.780187
0.710110
-0.500994
-0.428686
0.258492
-0.837261
-0.363961
-0.996672
-0.301070
0.076008
0.178949
0.143871
-0.831620
-0.747757
-0.367335
0.344064
0.260874
0.390694
-0.705027
-0.681078
0.757256
0.043580
-0.233428
0.321134
-0.736727
-0.359303
-0.162141
-0.853154
-0.069997
-0.640752
0.693130
0.149816
-0.886316
-0.774157
0.707295
0.212492
-0.751641
-0.709781
0.397527
-0.080585
0.466739
-0.405536
-0.932072
0.904550
-0.185147
-0.162338
0.042478
-0.924273
-0.771644
0.337451
-0.605351
0.985612
-0.618969
0.161221
0.306746
-0.355695
0.801918
-0.855396
-0.208850
-0.268079
-0.461018
-0.492627
0.867843
-0.479041
-0.466155
0.606765
0.835968
0.157233
1.005533
0.182735
0.957322
0.325727
0.702806
-0.874476
0.326701
-0.416512
-0.036814
-0.630821
-0.340785
0.191542
0.706630
0.053864
0.177154
-0.912339
-0.784915
-0.516100
-0.268034
-0.982998
-0.389546
0.481853
-0.329092
-0.003808
-1.147949
-0.472214
0.776461
-0.270937
-0.745261
0.570815
0.728403
-0.835934
-0.295393
0.615796
0.617779
-0.503761
0.741320
-0.055520
0.079727
-0.295493
0.313659
0.738942
0.896049
0.020289
-0.207194
0.073203
0.107950
0.007890
0.539058
0.792738
-0.055310
-0.958232
0.098198
0.652465
0.313881
0.303275
-0.665812
0.158474
-0.908827
-0.308840
-0.343750
0.731449
-0.232211
0.283190
0.347245
-0.584383
0.809478
0.088565
0.360097
-0.110795
0.793072
-0.326244
-0.371853
0.689121
0.694045
0.420953
-0.203710
-0.183341
-0.510812
-0.856338
-0.527588
0.177787
-0.553839
-0.880396
0.249852
0.822300
0.421128
0.684258
-0.082855
0.429614
-0.760019
0.402116
0.161063
0.067868
-0.254596
-0.491692
0.483485
-0.445118
0.596874
-0.156418
0.444087
0.389946
0.517338
-0.927766
0.086236
0.199537
0.455975
0.755814
-1.089525
0.887592
-0.700373
-0.329575
0.358138
-0.353831
-0.290657
-0.363696
-0.462268
-0.964396
-0.794700
0.305333
0.465218
-0.494621
-0.232453
-0.373718
0.573246
0.512951
0.134590
0.056731
-0.932167
-0.268537
0.900313
0.511920
-0.909586
0.443496
0.510547
0.024068
-0.490948
0.266187
0.153451
-0.333429
0.091497
0.202221
0.317746
-0.630984
0.887367
0.957936
-0.051589
-0.672659
0.993541
0.213809
0.692773
0.458759
0.719187
-0.539680
-0.914959
0.292434
0.973271
0.219631
-0.650836
-0.958896
0.921222
-0.767686
0.401250
-0.908449
0.695401
0.216266
0.322712
-0.754658
-0.883058
-0.822762
-0.183249
0.300170
0.493084
-0.788165
0.558982
0.386069
-0.805782
-0.432509
0.743459
-0.812241
0.781300
0.436232
0.646518
0.500487
0.896552
0.731559
-0.207079
0.869824
-0.078859
0.016521
0.706023
-0.200003
0.530100
0.531892
-0.047058
-0.016656
-0.492344
-0.854984
0.339730
-0.181614
-0.434651
-0.709790
-0.979287
-0.928684
-0.470284
0.618569
0.466210
-0.276066
-0.813940
0.209669
-0.088307
0.967360
-0.354099
-0.441788
0.467847
-0.457546
-0.707729
-0.846860
-0.717542
0.196713
0.473382
-0.609977
-0.869315
-0.260876
0.728241
0.138805
0.834112
-0.608976
0.362933
0.199063
0.195029
0.919581
0.501400
0.233470
-0.991453
-0.968884
-0.147961
0.474757
-0.244949
0.038099
-0.315573
0.666744
0.005459
0.330328
-0.775045
-0.526694
0.877348
-0.474153
-0.269982
-0.738178
0.729388
-0.872614
-0.391736
0.898931
-0.068655
-0.604581
0.016962
-0.215624
-0.225199
-0.617242
0.992420
0.987636
-0.688836
0.493820
0.221106
-0.680288
0.524937
-0.926855
0.794469
-0.720013
0.111244
-0.521105
0.946731
-0.883298
0.809223
-0.828314
-0.409992
0.682005
-0.313588
0.324083
0.967063
-0.557901
0.461011
-0.424674
-0.658970
-0.607644
-0.029255
0.357992
0.176810
0.754449
0.740750
0.169230
0.742085
-0.948086
-0.336950
-0.036809
-0.628374
-0.812013
0.036336
-0.833906
-0.532026
-0.852420
-0.355010
-0.585295
-0.735718
-0.545787
-0.413609
-0.145710
-0.863783
0.272803
-0.821627
-0.896720
0.714902
0.639383
-0.321394
-0.944068
-0.968261
0.649352
0.413924
0.208549
0.403801
0.154673
-0.622221
0.145886
0.206587
0.040830
-0.890923
0.578213
0.228817
0.145414
0.744307
0.696791
0.292993
-0.610703
-0.888505
0.557275
-0.156491
-0.302114
-0.588435
-0.020273
0.970688
-0.410063
0.083007
0.685590
-0.770679
0.761613
0.741522
-0.738940
0.410965
0.155445
0.469609
-0.185234
-0.689882
0.847388
0.960652
0.516706
-0.111782
-0.930271
0.094919
-0.882965
0.215143
-0.160774
0.813825
-0.491864
0.228523
0.925320
-0.934589
-0.927968
-0.376794
-0.523024
0.051759
-0.406106
0.066913
-0.865234
-0.720516
0.296234
0.896379
-0.978994
0.557294
0.307343
0.176451
0.026902
-0.877891
0.486569
-0.125709
-0.917239
0.003275
0.762509
-0.847510
-0.901806
0.879543
0.367633
-0.062580
0.693368
0.875769
-0.834057
0.618688
0.941180
-0.762025
-0.758106
-0.581844
0.289734
-0.164212
0.485069
0.424499
0.115273
-0.218697
0.320878
0.136278
-0.661404
-0.371779
-0.687271
0.365499
-0.249670
0.799298
-0.760210
-0.166909
-0.197426
-0.997702
-0.014419
-0.099233
0.881841
-0.646786
0.838187
0.575209
-0.771017
-0.995870
0.193898
-0.829838
-0.757895
0.435792
-0.411682
0.531839
-0.728420
-0.926613
-0.043662
0.386853
-0.145310
-0.722784
-0.476869
0.193286
-0.094562
-0.164139
-0.441215
0.655768
-0.364841
-0.201426
-0.511141
0.437733
-0.199128
0.474440
-0.661500
-0.317286
0.827654
-0.823313
-0.742077
-0.943363
-0.819182
0.451821
-0.773201
-0.577077
-0.112387
-0.184883
0.954762
0.159193
-0.111496
-0.088900
-0.453954
0.743193
0.188316
0.069177
-0.063521
-0.906246
0.905038
0.495264
0.749522
-0.459803
-0.706162
-0.761618
0.977929
0.094711
0.712822
-0.683571
0.777424
0.540476
-0.506883
-0.964653
0.597112
-0.326066
0.487168
0.823911
0.096857
-0.625220
-0.360972
0.051618
0.533973
0.527532
0.962718
-0.919981
0.270726
0.151035
0.149196
-0.792795
0.244789
0.054234
0.702469
-0.005688
0.594431
0.996307
0.232693
0.572360
0.091018
-0.054485
0.888789
-0.131558
-0.514009
-0.618094
-0.096211
-0.916897
0.055840
-0.609043
0.907014
-0.847304
-0.234263
-0.453957
0.204315
-0.700290
-0.926425
0.167033
-0.620271
0.344301
-0.681932
0.528926
0.551505
0.562857
-0.416841
0.253974
-0.442832
-0.822410
0.250281
0.789861
0.749950
-0.658701
-0.264624
0.638739
0.209740
0.221367
-0.979356
-0.886471
0.304470
0.076484
-0.495514
0.211484
0.255913
0.307763
0.732559
-0.594675
0.541763
0.735116
0.504542
0.916185
0.211512
0.956135
0.478588
-0.273093
0.481452
-0.938252
0.980882
-0.961380
-0.760662
0.231163
0.828482
0.989288
0.572461
-0.436142
0.628026
-0.217798
0.785225
0.648671
-0.104269
0.089694
-0.310623
0.375633
-0.726992
0.926165
-0.425546
-1.037281
-0.708156
-0.855612
0.924144
0.998118
-0.809963
0.065209
0.906953
0.668625
0.792116
0.388404
0.730373
0.772997
0.427025
0.969710
0.004160
0.255506
0.958998
-0.423379
0.819364
0.587024
0.358823
0.604588
0.240808
-0.782208
-0.277032
0.922070
0.617534
-0.043316
0.876408
-0.707734
0.089036
-0.672473
-0.373699
0.004401
-0.708628
-0.244377
-0.990820
-0.801676
-0.575752
0.801296
0.586729
-0.845380
0.574294
0.013753
-0.875669
-0.421546
-0.730741
-0.916671
0.155075
-0.875185
0.842528
-0.323669
0.920770
0.072486
-0.154478
-0.475926
-0.031960
-0.584342
0.512150
-0.013422
-0.174649
-0.502451
0.085097
0.314022
0.381092
0.376469
-0.930355
0.390272
0.574794
-0.506108
0.191569
0.161522
-0.351487
-0.234137
-0.824724
-0.227157
0.344316
-0.519273
-0.017975
-0.280715
-0.302638
-0.457497
-0.040586
-0.672403
0.569117
0.942947
-0.126340
-0.484437
-0.684966
1.033011
0.081554
-0.046597
-0.566060
-0.833348
-0.732575
0.815032
0.543121
-0.662930
0.205304
0.117915
-0.169038
-0.603127
-0.720563
0.479475
0.162735
-0.532723
-0.625536
-0.341973
0.027649
-0.058433
-0.316518
0.205413
0.564843
-0.838828
0.934684
0.222785
0.903162
-0.691166
0.367060
-0.993557
-0.730539
-0.551385
-0.040154
-0.296600
-0.384733
0.227271
-0.481568
-0.841612
0.564341
0.723736
0.276303
-0.604697
-0.879391
0.568304
0.945806
0.380861
-0.989378
-1.030187
0.455984
-0.301327
0.123650
-0.084657
-0.395673
0.018180
-0.105925
-0.999114
0.938190
-0.381951
-0.726473
0.305251
-0.375508
-0.457012
0.753865
0.584338
0.246388
-0.630868
-0.188390
0.764820
-0.472480
-0.624050
0.488556
0.763026
-0.214469
0.675434
0.336923
-0.511756
-0.357728
0.187019
-0.244041
-0.217099
-0.476760
-0.856746
0.519535
-0.378174
-0.120687
-0.703684
-0.377288
-0.182496
-0.085635
-0.103761
-0.877246
0.538858
0.439227
0.876620
0.123196
-0.314385
-0.754248
0.934806
-0.549564
-0.281258
-0.719442
1.005676
-0.279648
0.055498
0.395709
0.953674
0.781558
-0.375897
0.537131
-0.441709
0.172251
0.586356
-0.490121
-0.396685
-0.791782
0.389192
-0.100369
-0.169071
-0.793304
0.813997
0.727168
-0.670550
0.352854
0.166395
-0.793930
-0.523950
0.852010
-0.629440
-0.680373
-0.734098
0.274227
-0.281865
-0.743264
0.923785
0.953071
0.872259
0.871174
0.648288
-0.720297
0.045806
-0.967172
0.353833
-0.368089
-0.457293
0.957147
-0.159871
0.931900
-0.143222
0.671058
-0.861405
-0.329225
0.398226
-0.531955
-0.976371
-0.435379
-0.401267
-0.676406
-0.692847
0.173062
0.015740
-0.266860
-0.492037
0.824676
0.062236
-0.732869
0.510415
-0.232393
0.892788
-0.032570
-0.087444
-0.130232
0.000259
-0.665795
0.569495
0.542966
-0.708648
-0.590376
0.474866
0.148130
-0.919318
0.613461
0.818905
0.478908
-0.976361
0.687153
-1.093666
-0.261091
-0.718643
-0.568585
0.948148
0.279182
0.237004
-0.646999
-0.072068
-0.850149
-0.613470
-0.679334
-0.177954
-0.789946
0.288096
0.870235
0.215454
-0.711645
-0.795560
-0.215051
0.831321
-0.504208
0.194573
0.306187
0.643922
0.275254
-0.126899
0.305142
-0.302353
-0.073447
0.257187
-0.262804
0.607069
0.504325
0.265156
0.687765
-0.038611
-0.565003
0.861488
0.785222
-0.490977
-0.811089
-0.894112
0.466702
-0.465403
0.393984
0.336936
0.750051
0.682339
0.541376
-0.465000
0.513660
-0.962832
0.729573
-0.210256
0.603189
0.020580
0.726399
0.013268
0.512191
-0.467024
-0.643617
-0.451630
-0.483738
-0.920162
0.734974
-0.941493
-0.002819
-0.816198
-1.061137
-0.217597
-0.171543
-0.736594
-0.111709
-0.704841
-0.201997
-0.717724
0.632095
-0.451946
0.964614
0.173471
0.083054
0.466686
0.219401
-0.118296
-0.619596
-0.123522
0.736678
-1.038339
-0.986089
0.634361
-0.154593
-0.525546
-0.949794
0.194301
-0.499606
0.879838
0.411444
0.578961
-0.800728
0.418123
-0.638635
0.027729
0.681529
0.249656
0.322888
-0.520468
0.531932
-0.045017
0.027586
0.428730
-0.818291
-0.843553
0.080436
0.316290
-0.049718
0.337647
-0.659380
-0.132675
0.393415
-0.667369
-0.708833
-0.937178
-0.230567
-0.518103
0.396116
0.333171
-0.602058
-0.224049
-0.087868
-0.402786
-0.805926
0.273497
0.624943
0.875603
-0.476847
-0.052169
-0.644865
-0.889522
0.940507
0.348234
0.583448
-0.909569
0.578832
-0.407290
0.362602
-0.693689
0.745914
0.565028
0.131353
0.097519
0.909763
0.516627
0.230377
-0.380959
0.924801
-0.436726
0.952212
-0.677257
0.339226
-0.135656
-0.080043
0.533300
-0.862159
-0.455100
0.408903
-0.339006
0.492732
0.823288
-0.237138
0.481909
0.179244
-0.763510
0.426483
-0.355009
-0.205839
-0.202822
0.056750
-0.406447
-0.591136
-0.743787
0.703501
-0.733989
0.688614
-0.097731
-0.114948
0.613415
0.465544
-0.162736
0.936158
-0.195231
0.701608
-0.143885
-0.661931
0.839449
0.401016
0.746972
-0.499557
-0.106253
0.511010
0.216522
-0.710706
-0.342230
0.484232
0.716110
0.297891
-0.721608
-0.486712
-0.645359
-0.128055
-0.088351
-0.431259
-0.424554
0.177660
-0.742646
0.477716
-0.937288
0.870769
-0.056741
-0.100024
0.806927
0.748029
-0.398416
-0.336958
-0.913902
-0.558966
-0.935942
0.833070
-0.058523
-0.042195
0.344080
-0.842001
0.247100
-0.998151
0.642231
-0.036790
0.299740
0.920623
0.476498
0.654382
-0.207432
-0.611853
-0.776878
0.368014
0.565807
-0.519523
-0.154270
0.628519
-0.648754
0.788989
-0.471504
-0.841827
0.537018
0.130080
-0.178784
0.623116
0.571113
-0.114726
0.456185
-0.487410
0.843079
-0.199735
-0.329411
0.090179
-0.197886
-0.687180
-0.946612
-0.898145
-0.766557
0.529886
0.756236
0.026011
0.918033
0.979359
-0.605974
0.483840
-0.540164
0.239756
0.112359
-0.188918
0.028745
0.640855
-0.030745
-0.434237
-0.229065
0.790471
-0.811121
-0.657952
-0.324255
0.645064
-0.145361
-0.481176
-0.554671
0.525228
0.609003
0.247443
0.838048
0.662391
0.349298
-0.928508
0.192277
0.105534
0.097503
0.110310
0.084893
0.491528
-0.405850
0.544728
-0.268716
0.706509
-0.644190
0.760029
0.347364
0.325065
-0.674208
-0.881701
0.115536
-0.485329
-0.539652
0.791281
-0.840265
0.314986
-0.689895
-0.394936
-0.159785
0.919108
0.852507
-0.321737
0.581499
0.201805
-0.250246
-0.226223
-0.692661
0.847257
0.884087
0.392232
0.338785
-0.521763
-0.063039
-0.929931
-0.815254
0.292771
0.830098
0.532110
-0.382164
-0.844110
0.650410
0.733372
-0.329439
-0.889243
0.524653
-0.169705
0.425743
0.834758
0.435359
-0.734042
0.753866
0.287866
-0.055779
0.335365
-0.510329
0.693975
-0.890859
-0.202989
0.541232
0.993228
-0.810757
-0.119982
-0.528536
0.126204
-0.049913
-0.343790
-0.581025
-0.219815
-0.811679
0.036811
-0.063925
0.838730
-0.229817
0.606636
0.949487
-0.705164
-0.563069
0.375231
-0.870407
0.872290
0.641188
0.883459
0.160156
-0.414591
0.218824
0.649828
-0.720615
0.327965
-0.553162
0.820617
0.321193
-0.363919
-0.299365
0.792657
0.762285
0.650722
-0.551132
-0.818740
-0.569093
-0.362812
0.218071
0.366983
-0.524082
0.988253
-0.026381
-0.574595
-0.716911
0.410550
0.800636
-0.587318
0.282840
0.441824
-0.703859
-0.557003
-0.972766
0.514965
-0.907175
-0.693382
-0.157070
-0.460337
-0.872765
-0.835877
0.175744
-0.172130
0.956780
-0.061970
-0.521408
-0.594352
0.119290
-0.090500
0.042836
-0.662640
-0.723518
0.518754
-0.674386
0.250101
0.944160
-0.391297
-0.339349
0.744796
0.021385
0.943491
0.186620
0.317526
-0.613512
0.213854
-0.167509
-0.520687
0.520472
0.675421
0.018976
0.647707
0.839544
-0.805280
-0.524423
0.796324
0.132750
-0.045830
-0.798028
-0.747960
0.863669
0.244808
-0.410600
-0.859848
-0.236438
-0.084986
0.390253
-0.292278
0.523716
-0.949092
-0.547225
-0.452318
0.951586
0.596327
0.819818
-0.661926
-0.192141
-0.230049
-0.139545
-0.626537
-0.629460
0.879172
-0.978830
-0.789916
-0.926107
-0.503252
-0.993591
0.206643
0.450918
-0.791619
0.458682
0.314587
0.453189
-0.951918
0.454739
-0.783248
-0.036904
-0.152680
-0.155853
-0.555997
-0.146914
0.334181
-0.010896
-0.152518
-0.026682
-0.150590
0.263096
0.869119
0.589661
-0.868627
-0.757417
0.960201
-0.989455
-0.736247
-0.829714
-0.915563
-0.239499
-0.823306
0.291080
-0.788582
-0.614925
-0.250238
0.526005
0.838265
-0.202155
-0.016056
-1.033298
0.676121
0.805552
-0.043749
-0.772573
-0.298694
-0.655252
0.267935
0.670910
0.403763
-0.811092
-0.116899
0.241729
0.763870
0.014474
0.484311
0.724071
0.025019
0.748064
0.894357
0.109456
-0.491435
-0.928949
-0.599464
-0.280017
-0.543873
0.162230
-0.761046
-0.813328
0.797264
0.144709
-0.692392
0.674189
0.055510
0.329275
1.054830
0.798553
0.764783
0.251205
0.386029
0.057987
0.410715
-0.730870
-0.700284
0.174585
0.283604
0.784027
-0.101344
-0.691377
0.532091
-0.206987
0.418079
-0.959344
-0.135936
0.830547
-0.248497
0.171531
-0.112815
-0.099742
0.676884
-0.042405
-0.771703
0.914099
-0.509964
0.268871
0.379949
-0.405088
0.059934
-0.021735
0.819486
-0.554038
-0.963747
0.230201
-0.284908
-0.664031
-0.595214
0.998696
-0.880004
0.303443
-0.692681
0.652087
-0.903544
0.659443
0.521201
-0.224347
0.455585
-0.467963
-0.714652
-0.609058
0.538065
0.774999
0.323871
0.715565
0.892802
-0.931940
-0.020799
0.152169
-0.360890
-0.960865
-0.869565
-0.541404
-0.514903
-0.833312
0.688798
0.200189
-0.497344
-0.906416
0.198885
-0.377348
0.397027
0.440249
-0.794600
0.378877
0.170393
0.995724
-0.621390
-0.299047
-0.513076
-0.254197
0.124530
0.819937
-0.388043
-0.281468
0.574244
-0.510712
-0.225338
-0.446555
0.641457
0.413772
-0.407420
0.771892
0.872368
0.077676
0.938579
0.561166
-0.722134
-0.558764
0.654750
0.414437
0.029807
-0.056143
-0.065282
0.347574
-0.610989
-0.931590
0.389343
0.006517
-0.168146
0.722205
0.843972
-0.721279
0.607848
-0.636020
-0.002747
0.182093
-0.146732
0.771915
0.735537
-0.505276
0.185686
-0.671883
-0.733384
0.058054
0.405793
-0.794805
-0.380780
0.683254
-0.366877
-0.834700
0.068388
0.695231
0.258541
-0.895778
0.014729
0.804820
-0.683000
-0.630362
-0.098424
0.364699
-0.917970
-0.395759
0.626820
0.689879
-0.031779
-0.375928
-0.128029
0.821488
-0.604013
-0.392491
-0.683787
0.581673
-0.064374
-0.417171
-0.360273
-0.658989
-0.195984
0.271941
-1.047794
0.356015
0.364472
0.041509
0.107300
-0.184743
0.353280
-0.772881
-0.239936
0.703235
-0.451225
0.599934
0.034877
-0.369195
-0.795826
-0.338304
-0.679316
0.172395
0.285769
0.192655
-0.006117
0.681755
0.800164
0.310096
0.263429
-0.312270
0.858048
0.892769
0.025960
-0.323074
0.019528
-0.084109
-0.935054
-0.459750
-0.763135
0.311089
0.605384
0.632316
0.453894
-0.716650
0.303407
-0.997332
0.883283
-0.661716
-0.366526
-0.912543
-0.000020
-0.045842
0.259852
-0.714252
-0.853187
-0.746265
0.967504
0.890953
0.543215
0.115408
-0.443333
0.510894
0.184826
0.746469
-0.966502
-0.923310
-0.235704
-0.706689
0.079635
0.165726
0.513280
-0.455106
-0.233331
-0.032827
-0.171756
-0.929924
-0.030158
-0.288473
-0.591640
0.603315
-0.201016
0.408340
-0.442527
-0.941164
0.694088
-0.361901
-0.892156
0.535451
-0.329861
0.961651
-0.018753
0.283120
0.242855
-1.143794
-0.013010
0.483111
-0.663459
0.971768
0.723964
0.314016
0.106310
0.237243
0.858910
0.872979
-0.795584
-0.312846
0.943055
0.174258
0.398680
-0.648585
-0.222427
-0.802336
0.759755
0.269625
-0.865278
0.222154
-0.816200
-0.309000
0.053579
-0.436885
-0.666683
-1.096348
-1.076196
0.797634
-0.871952
0.134129
0.249487
-0.642624
0.074903
-0.026549
0.671392
-0.818787
-0.789306
0.530302
-0.945807
-0.584890
-0.782544
0.997248
0.589368
0.616137
-0.651337
-0.692853
0.699897
-0.914769
0.648836
-0.889380
0.508269
0.602633
-0.447090
-0.431690
-0.628086
0.128795
-0.283539
-0.557523
-0.150589
-0.279774
0.575172
-0.887040
0.077602
-0.349925
0.086411
-0.251006
-0.168712
0.297105
-0.720703
-0.114519
0.712216
-0.503247
-0.117271
0.301584
-0.884204
0.208125
0.657733
0.805377
0.259042
0.255356
0.887167
-0.174985
0.108122
-0.313189
0.565924
0.529900
0.717857
-0.723868
-0.989008
-0.415319
-0.014351
0.575455
-0.302358
-0.936749
-0.774470
0.784053
-0.187755
0.056818
0.081158
0.091542
0.942299
-0.207016
0.680307
-0.348205
-0.972289
0.635852
-1.029396
0.665091
0.536103
0.312743
0.059006
0.610834
-0.715541
-0.753960
-0.727051
0.889788
0.800276
0.982441
-0.856506
0.789850
-0.432878
0.129143
0.365305
0.264764
0.192394
0.590835
0.048817
-0.995361
-0.352347
-0.870025
0.096182
-0.405367
-0.094830
-0.339802
0.367718
-0.002050
-0.670114
0.414456
-0.218212
-0.986461
-0.132369
0.915782
0.639416
0.177650
-0.838395
0.899639
0.044004
0.951172
0.882080
0.187498
0.741022
-0.550798
-0.683359
0.106328
0.713966
0.509035
-0.302837
-0.237218
0.513674
0.344817
-0.107243
-0.390144
0.934769
0.816106
0.294333
0.349749
-0.165588
0.679996
-0.178851
0.616201
0.693535
0.688779
0.531982
0.331942
-0.145287
0.693587
0.231581
0.898717
0.644759
0.113661
0.086215
0.385781
0.562863
0.402856
-0.507891
0.276829
-0.088110
0.189273
-0.960389
-0.574436
-0.465911
-0.067632
0.035420
-0.531142
-0.251526
-0.670247
0.818607
0.582886
-0.990251
-0.360244
0.199087
0.703283
-0.671465
-0.268931
0.035225
0.183248
-0.575344
-0.733194
0.081965
-0.930585
0.380467
-0.831820
0.455197
-0.056670
0.571035
0.947306
-0.779841
-0.517074
0.136579
-0.740230
-0.091510
0.670668
0.192138
0.943910
-0.860474
0.940612
-0.726337
0.958133
0.523498
-0.716588
-0.402112
-0.277415
0.986695
-0.073576
0.453654
0.021920
-0.890328
0.878310
0.288726
0.191636
0.947726
-0.330807
0.359816
0.402923
0.612524
-0.069148
0.350229
0.832683
0.413777
-0.513193
-0.907548
-0.677733
-0.842525
0.284590
-0.733823
-0.702999
0.225202
-0.460160
-0.744867
-0.251300
-0.176749
-0.146978
0.471285
-0.190054
0.779445
-0.075061
0.831866
0.889117
-0.196750
0.120592
0.080753
-0.249025
0.789785
-0.559430
-0.846102
0.402309
0.371421
0.504126
0.234992
-0.214801
0.990934
0.327444
0.107466
-0.851591
-0.387966
0.373643
-0.554591
0.837236
0.913483
-0.299457
-0.414064
-0.263266
0.553564
-0.942780
0.546680
0.333010
-0.017841
0.378546
0.222127
0.785409
-0.500862
-0.697120
-0.463616
-0.711077
-0.256550
-0.309718
0.691232
-0.885129
-0.805592
-0.073776
-0.099931
-0.814658
-0.746331
-0.992465
-0.666250
-0.134297
0.381178
-0.220840
-0.297061
0.294660
0.479702
0.288874
-0.968606
0.033267
0.346094
0.578074
-0.633723
-0.671746
-0.043380
0.588404
-0.886338
0.455759
0.891284
-0.349953
0.744682
-0.365267
0.340328
0.435914
-0.250396
0.534736
-0.637861
0.649674
0.720078
-0.384193
0.657209
-0.946171
0.481510
0.038387
-0.167012
-0.815551
-0.666953
-0.687309
0.473323
-0.635559
0.345957
-0.180583
0.942516
0.712234
0.147671
-0.100864
0.300638
0.261334
-0.645105
0.191921
0.911380
-0.900423
0.826655
0.251709
0.535491
-0.423741
-0.213555
0.897630
-0.774067
-0.493477
-0.486563
0.883142
-0.439648
0.994947
-0.078472
0.393340
-0.820604
0.254575
0.706031
0.652719
0.619017
0.051988
-0.527864
0.561533
-0.235778
0.619808
-0.539331
-0.935140
-0.118859
-0.184436
0.256781
-0.207478
-0.084860
0.083436
-0.955770
-0.549369
0.659695
-0.169325
-0.651739
0.885628
0.337198
-0.138302
0.768770
0.897550
-0.143354
-0.309702
0.290890
0.036042
0.944873
-0.003079
-0.311239
0.563890
-0.951090
0.160897
0.125423
-0.186868
-0.219295
0.586092
-0.122008
0.661846
-0.598345
-0.865226
-0.545632
0.316796
0.218210
-0.501402
0.767427
-0.122095
0.329273
-0.884312
-0.236467
-0.333528
-0.022613
-0.467697
-0.434207
0.835898
0.215820
0.847801
-0.137037
0.160353
-0.155287
0.560363
-0.267202
-0.097391
-0.280268
0.856787
0.713875
0.500436
0.442879
-0.408132
0.162283
0.844534
-0.273359
0.616650
0.161330
0.944851
-0.884752
-0.071243
-0.177244
0.444521
0.044446
0.586289
-0.895884
-0.985084
-0.888519
-0.332096
0.848744
0.334071
-0.477194
-0.281182
-0.489796
0.381289
-0.715227
0.240031
-0.717496
0.004505
0.096818
0.996379
-0.495058
-0.460303
-0.411753
0.667224
-0.615769
0.314888
0.283874
0.545561
0.259740
0.399123
-0.525682
-0.917504
-0.165385
0.517500
0.675952
-0.038854
0.547354
0.798825
0.641099
0.431540
0.163659
-0.807797
-0.871298
0.636458
0.541339
-0.592827
-0.122733
0.823843
0.411679
0.974085
0.820223
0.916620
-0.486218
-0.591531
0.583844
-0.101987
0.723358
-0.132281
-0.556426
-0.017622
-0.736767
-0.080362
0.031937
0.004649
-0.619562
-0.310548
-0.970483
0.932856
-0.537852
0.734664
0.381726
0.649548
0.854352
0.496114
0.287562
0.395691
0.903287
-0.835172
0.219534
0.314966
-0.861087
0.039757
0.231586
-0.347305
0.448226
-0.184570
0.550708
0.170865
0.682099
0.922624
-0.991165
0.888884
-0.129751
0.172663
0.055720
0.321714
0.899716
0.123655
0.334808
-0.524309
-0.179630
-0.300203
-0.873264
-0.325278
-0.804089
0.414297
-0.929587
-0.900802
0.579126
0.289947
0.414164
0.718039
-0.670296
-0.354250
-0.629266
0.771590
0.457964
0.798887
-0.102113
0.155375
0.997017
0.208929
0.203498
-0.089213
-0.674094
-0.848186
-0.803462
-0.721595
0.280391
0.502811
-0.244466
-0.899239
-0.797392
-0.117730
-0.224518
-0.601481
-0.703433
-0.154105
-0.502283
0.875693
-0.864158
0.911881
0.593732
-0.540794
-0.492101
0.812631
-0.780879
-0.937640
0.986907
0.285220
0.263520
0.876980
-0.706981
-0.754471
-0.350438
-0.378345
-0.587746
-0.193746
-0.099221
0.692645
-0.690936
0.656314
0.793405
-0.488328
-0.461416
-0.431113
-0.089809
-0.164849
0.414783
0.407908
-0.289156
0.534000
0.203958
-0.747778
-0.973653
0.927094
-0.649606
-0.683462
0.964048
-0.760807
0.495033
0.102859
0.973173
0.749819
0.316833
-0.413896
-0.628526
0.729087
0.392358
0.272254
0.421731
0.701422
-0.071433
0.215136
-0.786905
0.467151
0.784024
0.123285
-0.697698
0.157089
-0.614239
-0.033752
-0.221837
0.850947
0.290397
-0.284480
0.670816
0.633014
0.032153
0.628643
0.744298
-0.525683
-0.315992
0.698292
-0.772300
-0.999159
-0.715604
-0.400826
0.729928
0.676755
0.871427
0.151659
0.378177
-0.200005
-0.633205
0.591272
-0.732854
-0.892667
-0.347620
-0.471404
0.293139
0.206238
0.446016
-0.956798
0.036935
-0.141011
-0.175810
-0.166689
-0.496613
0.896982
-0.550230
-0.771204
-0.632216
0.133778
0.927088
-0.404516
0.134619
-0.788516
0.194658
-0.135454
0.888239
0.066085
-0.983795
0.266416
0.866080
-0.660921
-0.201952
-0.918405
-0.468155
0.558435
-0.273862
0.957699
-0.121941
-0.770634
0.878597
0.872113
0.164010
-0.142683
-0.260137
0.672658
-0.262948
0.189633
0.901463
0.104845
-0.676589
0.828551
0.700329
0.458029
-0.959965
-0.105014
-0.677424
0.928274
0.961071
-0.612135
0.129067
0.804632
-0.333687
-0.901026
0.965763
0.339949
0.720036
-0.297276
0.022330
-0.600463
-0.079574
0.131705
-0.642655
-0.866108
0.968695
0.097207
0.806568
-0.294234
-0.713160
0.708031
0.810611
-0.389749
0.536582
0.510939
-0.931720
0.576617
-0.594074
-0.548096
0.440558
-0.651458
-0.211295
-0.200621
-0.665840
0.553817
-0.136489
-0.758910
-0.308317
-0.582220
-0.183773
0.879382
-0.180801
0.765881
-0.032400
0.176543
0.899791
-0.063687
-0.726249
0.706359
0.642079
-0.439409
0.414390
0.452690
0.170841
-0.049028
-0.036371
0.314467
-0.481832
0.337541
0.666783
-0.883007
0.852953
-0.526272
-0.154259
0.996943
0.805163
0.516694
-0.920781
-0.448642
0.860602
-0.097213
-0.635899
-0.320199
-0.331315
0.331719
0.856345
-0.431524
-0.731968
-0.869905
-0.725164
0.910112
-0.309314
0.689226
0.362801
0.861370
-0.421673
-0.828553
0.018572
0.133889
0.656074
-0.189120
0.256951
0.451539
-0.016683
0.864568
0.331318
-0.101658
0.413423
0.448450
0.419317
0.276953
-0.648745
0.783428
0.956755
0.019941
0.115147
0.813099
0.588417
0.383179
0.943194
0.863253
0.293291
-0.366128
0.517843
-0.503617
-0.664572
-0.871666
-0.057146
0.646639
0.376426
-0.363366
-0.771352
-0.458595
-0.901515
0.404362
-0.509390
0.474747
-0.681343
0.909416
-0.077258
0.737510
0.186369
0.273997
0.520937
0.143124
-0.706062
-0.363916
-0.043777
0.882355
-0.980737
-0.098483
0.752684
0.283788
0.374512
0.137487
0.809289
-1.043494
0.430670
-0.110649
0.562689
-0.138171
0.617116
0.941803
0.412516
0.741274
0.368834
0.905029
0.215005
0.686561
0.814444
-0.862254
0.424071
0.000813
0.411743
-0.054992
-0.856063
0.705681
0.581092
0.100159
0.588036
0.607406
1.002910
0.311804
-0.195130
0.414609
-0.403201
-0.118400
0.561580
-0.877505
0.832722
0.186343
-0.026189
0.462951
0.137790
-0.614310
0.203122
-0.493841
-0.709282
-0.581874
-0.807280
-0.894837
-0.444128
0.616791
0.105976
0.967615
-0.438201
0.249913
0.673296
-0.857109
-0.649928
0.261331
0.743246
-0.650351
-0.405025
-0.343845
0.882523
0.226705
0.537709
0.444103
0.349200
0.370431
-0.369554
-0.677075
-0.167170
0.768236
-0.291385
-0.964048
-0.725605
-0.000667
-0.545922
-0.532885
0.104496
0.009950
-0.916094
-0.789528
-0.022435
-0.354294
0.460384
-0.349139
-0.211403
0.810457
0.912193
-0.468157
-0.839895
-0.492832
0.187998
-0.957372
0.733873
-0.274294
0.486731
0.083072
-0.903862
-0.882822
0.405997
-0.071032
0.885413
-0.885388
-0.035080
-0.840192
0.113945
0.418998
-0.373077
-0.781559
-0.571052
-0.289171
-0.571088
0.406513
0.356535
0.889297
-0.942626
-0.854868
0.699753
0.969567
-0.323024
0.859859
-0.523265
0.864973
0.902487
-0.789393
-0.409320
0.389218
0.293680
-0.313183
0.506396
-0.300323
0.615785
0.391809
-0.185711
-0.419295
0.551617
0.928235
0.999702
-0.821460
-0.853325
-0.571350
-0.110631
-0.424412
0.835163
-0.754095
-0.535115
0.892537
-0.608963
-0.835362
0.862104
0.068013
-0.975504
-0.661161
-0.067014
0.926983
-0.450554
0.523666
0.316202
0.843126
-0.789517
-0.177402
-0.457197
0.826268
-0.785593
0.357093
-0.593027
0.766024
0.285327
-0.593325
0.944564
0.432003
-0.164675
-0.166067
-0.992409
-0.329512
0.079838
-0.527525
-0.436975
0.470875
-0.362887
-0.574870
-0.461113
-0.338391
-0.236031
0.471873
-0.411407
0.313415
-0.004461
0.904794
0.156541
0.206022
-0.272608
0.699345
0.032290
-0.058201
0.056438
0.439263
-0.292178
-0.658235
0.845938
-0.347614
0.773768
-0.318737
0.486320
0.781358
0.351751
-0.433843
-0.746166
0.914776
-0.962968
-0.109053
-0.660094
-0.424080
0.552556
0.103875
-0.952207
-0.858851
-0.582710
0.043332
-0.954057
0.573832
-0.750646
-0.226665
0.273176
0.281643
0.715134
-0.670386
-0.279094
-0.577044
-0.328621
-0.433156
0.075342
-0.554853
0.248107
-0.438338
-0.773495
-0.400142
0.127819
-0.519661
-0.485366
0.164852
0.371286
-0.145460
0.740771
-0.076158
0.958415
0.788564
0.064990
-0.624295
-0.168104
0.110933
0.949537
0.081250
0.884269
0.222713
-0.637107
0.599402
0.552327
0.083799
-0.977642
-0.776294
0.650642
0.097700
-0.331147
-0.101251
0.659362
-0.104641
0.498607
-0.212819
0.375697
-0.986759
0.952033
-0.253017
-0.132219
0.692804
0.670824
-0.173804
0.481369
-0.264185
0.201902
-0.686735
0.846748
0.151439
0.394515
0.731017
-0.625848
0.757408
0.330419
0.926480
-0.158793
0.352777
-0.849814
-0.508151
-0.549522
-0.180961
0.390598
-0.890160
0.714398
-0.110795
-0.102979
0.090095
-0.097555
-0.150946
0.837078
0.770227
-0.458141
0.507903
-0.403577
-0.976772
-0.756283
0.798325
-0.663507
-0.909534
-0.050236
0.731008
0.821482
0.323916
0.488415
0.151901
0.250396
-0.670378
-0.495322
0.400582
-0.178529
-0.044844
-0.780379
-0.787931
0.064996
0.934019
0.101273
0.962017
0.024114
-0.996281
-0.188939
-0.138819
0.774203
0.352978
-0.630858
-0.629383
0.376407
-0.387208
-0.831154
0.712640
-0.296722
0.118457
0.443659
-0.475240
-0.557627
-0.067926
0.676661
0.692768
0.261696
-0.818660
0.093350
-0.916833
0.136496
0.312971
-0.704764
-0.798508
0.246990
0.396509
-0.836231
-0.728653
0.400274
-0.025372
0.132545
0.174421
-0.672239
0.501639
0.544319
0.703819
-0.885798
0.713233
0.416321
-0.182520
-0.168310
-0.140020
0.342240
0.274062
0.792054
0.018901
-0.033169
0.053750
0.200241
-0.939819
0.136917
-0.663264
0.373151
0.432153
-0.564980
-0.376025
-0.237513
-0.364287
-0.174869
-0.833896
0.613534
-1.040171
0.339148
-0.959616
0.663340
0.088026
0.707501
0.639133
-0.339165
0.123822
-0.543387
0.492525
0.983802
0.798852
-0.233413
0.775857
-0.182246
0.733418
-0.170393
-0.982006
0.793599
1.071460
-0.568448
0.127869
0.473003
-0.026784
0.871056
-0.750262
0.744768
-0.114849
-0.402014
0.333736
-0.134531
0.999714
0.274845
-0.773394
-0.193108
-0.017654
0.865739
0.467727
-0.893832
-0.677649
-0.039748
-0.910029
-0.878796
0.726839
0.865827
-0.061043
0.460257
-0.199630
-0.054029
0.331585
-0.293213
0.428697
-0.385765
-0.844143
-0.639391
-0.713456
-0.589061
0.850461
0.049264
-0.150860
0.070352
0.587308
-0.396505
-0.654802
0.813914
0.410387
0.327544
0.679653
-0.121886
0.433712
-0.997996
0.838366
0.523683
-0.876792
0.565205
0.347808
-0.073152
-0.075853
-1.041811
-0.925677
-0.730869
-0.324789
0.289539
-0.354894
-0.081679
0.586803
0.045440
0.200452
0.334776
0.793054
0.839722
-0.594872
0.380362
-0.556783
-0.249674
0.194276
0.853604
-0.922130
-0.126071
-0.268282
0.511582
-0.124067
-0.429916
-0.006437
-0.034612
-0.866110
-0.592111
-0.879876
0.166346
-0.547383
-0.849171
0.490941
0.288072
0.426727
-0.757479
-0.935836
-0.053342
0.047413
0.159681
-0.718566
-0.159533
-0.000597
-0.313438
-0.779171
0.442620
0.436888
0.415105
0.296224
0.514758
-0.710966
-0.972058
0.002901
0.150907
-0.405274
-0.946470
-0.764413
-0.262792
-0.495531
-0.615845
0.888509
-0.061851
-0.705092
0.331911
-0.747276
0.717052
0.474125
-0.683112
-0.336290
-0.478462
0.476569
-0.054856
0.362005
-0.524027
0.631706
0.582834
0.918593
0.068594
-0.002061
0.214817
-0.416804
0.289422
0.233793
0.635716
-0.447288
0.871366
0.664639
-0.289130
-0.450476
-0.831529
-0.169725
-0.531885
0.153796
0.147291
0.802294
0.406501
-0.135657
0.276420
0.723389
0.528054
0.797958
0.199959
-0.526802
0.159963
0.675931
-0.895096
-0.257203
0.594524
0.173352
0.748454
-0.169569
0.774199
0.109209
-0.958182
0.370492
0.516341
0.848583
-0.002004
-0.915583
-0.535171
0.193505
-0.062848
-0.064859
-0.650703
-0.915557
-0.262564
0.755798
-0.051214
-0.986145
0.479187
-0.523160
0.811813
-0.320854
-0.049962
-0.028223
-0.644923
0.068966
0.700688
0.930712
-0.816846
0.396116
-0.280317
0.968581
-0.488532
-0.184355
0.428149
0.971762
-0.293706
-0.612408
-0.941640
0.171105
0.585398
-0.004488
-0.893957
0.934491
0.079955
-0.156521
0.690289
-0.971259
-0.142665
0.169477
-0.494419
-0.330852
0.848622
0.473058
0.661524
-0.814952
-0.635411
0.271171
-0.940760
-0.249961
-0.050480
0.012767
-0.295326
0.302998
0.725792
-0.925957
0.256492
-0.572594
-0.533994
0.314852
0.598105
-0.949002
-0.689636
0.704148
0.985489
0.390319
-0.452373
0.675778
0.419060
0.404962
-0.154745
0.935380
-0.908334
-0.415368
0.270699
0.673417
-0.096085
1.068791
0.218206
0.131700
-0.395142
0.890762
0.968963
0.355028
0.175167
0.686602
0.430442
-0.568340
-0.886398
0.896042
0.746512
0.711707
0.947039
-0.943124
0.415856
0.932528
0.447195
0.963483
0.608306
-0.124502
0.378192
-0.669805
-0.393354
0.419633
0.437151
-0.662907
0.280468
-0.975372
-0.935958
-0.770117
0.098628
-0.307086
-0.890536
0.059212
-0.953889
0.284631
-0.254592
0.476147
0.716291
-0.140989
0.372188
0.462803
-0.429282
0.319228
0.519679
0.986574
0.251756
-0.049420
0.949360
-0.314053
0.688996
0.365792
0.495722
-0.331277
-0.256303
-0.679142
-0.303924
0.808555
-0.506734
-0.155188
-0.865572
0.602171
0.548950
-0.743765
-0.339023
0.594858
0.540867
0.406386
0.071005
0.257158
-0.734603
-0.556806
-0.280039
-0.163885
0.762421
-0.760157
-0.250060
-0.160426
0.085673
-0.195482
0.960768
0.037295
-0.971425
0.078774
0.539574
-0.261940
0.636198
-0.553878
-0.241665
-0.845076
0.315925
-0.082273
0.756968
-0.135048
0.173963
-0.582055
-0.540190
-0.285170
0.824331
0.530815
0.971988
-0.910273
0.974009
-0.306061
-0.128688
0.610648
-0.114557
0.790498
-0.176370
-0.851435
-0.465755
-0.488422
0.053850
-0.397198
0.799983
-0.158766
0.452120
0.448916
0.300184
-0.764209
0.616630
-0.383739
0.153518
0.373598
0.481213
-0.672519
0.791543
0.941023
0.042311
0.615873
0.471838
0.014298
0.705601
0.442387
0.699368
-0.351032
0.204534
-0.330430
-0.625567
0.919897
-0.224062
-0.098749
-0.442270
0.953684
0.501137
-0.642277
-0.204903
-0.021387
0.832068
-0.904643
0.214404
0.448699
-0.288383
-0.632078
-0.177703
-0.807170
-0.304597
-0.386160
-0.866147
0.737713
-0.770287
0.605690
-0.247989
0.935314
0.051537
-0.541742
-0.433244
-0.766185
0.096093
-0.053270
-0.833301
0.872031
0.847981
-0.275571
0.825715
0.361759
0.094866
-0.379188
-0.659628
-0.073065
-0.283831
0.554776
-0.624366
0.427786
0.922698
0.197930
0.620616
-0.381899
0.811770
0.754469
-0.644186
-0.958517
0.360159
0.107825
0.976797
-0.588303
0.566083
-0.456447
-0.354489
-0.337824
0.490283
-0.187790
-0.465792
0.338264
0.536639
-0.640077
-0.299977
-0.368495
-0.019265
0.040396
0.558440
0.696904
-0.404828
0.934074
0.124690
-0.482130
0.132004
-0.254694
0.135970
-0.056226
-0.500225
0.491785
-0.014743
0.859935
-0.400390
-0.037946
-0.728369
-0.834307
0.505606
-0.082857
-0.172131
-0.004111
0.729353
0.362077
-0.665847
0.265992
0.722000
0.034176
0.897497
-0.297265
-0.925429
0.455937
-0.600361
-0.330257
0.390011
0.524330
0.187613
-0.477985
-0.730364
-0.676417
0.465789
-0.230589
0.815368
-0.548954
-0.370654
-0.585022
0.413100
-0.099023
-0.419329
-0.081293
0.818120
0.408540
0.914596
0.547473
-0.229383
-0.751252
-0.186536
-0.507383
0.282924
-0.289038
0.195352
0.357495
-0.833101
0.594992
-0.972762
0.556910
0.119321
0.214851
-0.921075
0.388957
0.538434
0.544714
-0.841631
0.353802
0.995760
-0.212285
0.768779
0.408860
0.688692
-0.650550
-0.672433
0.506812
0.757990
-0.757838
0.054284
-0.471393
-0.509089
0.867748
0.021224
0.773835
-0.421290
-0.783424
0.131330
-0.254391
0.811568
0.158568
-0.697481
-0.069111
-0.626581
-0.618557
-0.680154
0.911853
0.926157
-0.521785
0.265655
0.921918
0.265930
0.034435
0.330778
-0.045378
0.383885
0.658345
-0.538567
0.141875
0.900507
0.515717
0.670481
-0.608582
0.383466
-0.308295
-0.834748
0.962176
-0.091719
0.296582
-0.292216
-0.280151
-0.544850
0.010303
0.650738
-0.171431
0.391746
0.970584
-0.259578
0.317903
-0.551201
-0.993923
0.239821
0.714729
0.040512
-0.429401
-0.330649
-0.575603
-0.771057
0.130784
0.566271
-0.870550
-0.353499
0.236753
-0.479132
-0.970034
0.928458
-0.313880
0.992142
-0.163261
0.982702
-0.300074
0.556587
-0.562148
0.710229
0.207325
0.266421
0.101975
0.177909
-0.993157
-0.580121
0.626709
-0.987080
0.659700
0.341438
0.053432
-0.769701
-0.989212
0.477828
-0.540758
0.141572
0.044100
-0.411308
0.788073
-0.719148
0.109560
0.818039
-0.790690
0.795680
0.810181
0.046048
0.778382
-0.489892
-0.397364
-0.783767
-0.779663
0.809961
0.482654
0.322312
-0.012130
0.489497
0.742191
-0.385421
0.502416
0.401891
0.956016
-0.444152
0.632190
0.966805
-0.966323
-0.908568
0.108377
0.077776
-0.319876
-0.103551
0.358628
0.789684
-0.285511
0.567938
0.585364
-0.475330
-0.386014
0.363746
0.034778
0.216622
0.579979
0.255115
0.026583
0.062633
-0.422573
-0.985547
-0.447870
-0.680382
-0.370968
-0.945454
0.721509
-0.414467
-0.387400
0.352996
-0.448175
-0.355957
0.432415
0.647515
0.712039
-0.872667
-0.441115
0.080475
0.914938
0.271168
-0.351587
0.500302
0.795838
0.262399
-0.135953
-0.169384
-0.520980
-0.555973
-0.914270
0.505603
0.506660
-0.336843
0.520056
-0.941211
-0.017225
-0.853337
-0.886576
-0.295745
-0.265893
-0.288986
-0.954733
0.273273
0.355085
0.505992
-0.051396
0.089647
0.628365
0.502897
-0.829878
0.543303
-0.225935
-0.181466
0.043604
-0.430098
-0.919067
0.907651
0.400518
-0.440047
-0.648322
0.486248
-0.934444
0.858338
-0.850595
0.587104
0.876180
0.101949
0.632663
-1.073298
0.726216
-0.641412
-0.321505
0.831435
0.698512
-0.908129
0.401952
-0.298959
0.211638
0.025920
-0.796062
0.381760
-0.430777
-0.021998
-0.799706
0.612827
0.547905
-0.718773
0.520478
-0.051577
-0.158820
0.872157
-0.567404
-0.135716
0.676812
-0.467824
-0.630558
0.514767
0.589384
-0.830835
0.614787
0.492426
-0.342163
-0.622217
0.451558
-0.549296
-0.445734
-0.155283
0.151745
0.765904
0.870637
0.355682
0.147664
-0.560140
-0.666316
0.347958
-0.947313
0.881589
0.629185
0.573166
-0.172064
-0.587339
0.389542
0.148639
0.243745
0.016208
0.757309
0.859406
-0.210024
0.542733
-0.941478
-0.553146
0.115655
-0.207625
-0.066205
-0.435109
0.243079
0.488061
0.409608
-0.605176
0.253965
0.280245
0.750506
-0.598370
0.720105
-0.915810
0.749588
0.772792
0.963602
0.345785
0.345858
-0.224299
0.730734
-0.384904
-1.045719
0.184869
0.934049
0.862289
0.074030
-0.229177
0.472167
0.192178
0.292054
-0.408028
0.984553
-0.774151
0.156863
0.227632
0.713910
-0.433529
0.622456
-0.032124
0.846716
0.372962
0.369505
0.566821
0.454975
0.124027
0.348698
0.385670
-0.620869
-0.496306
-0.944192
-0.750859
0.379576
-0.772996
0.539833
0.445588
-0.811577
-0.331077
-0.765519
0.662665
0.861101
0.526535
-0.745363
0.845654
0.752384
0.411500
0.073287
0.466295
0.977971
-0.304257
-0.565830
0.824686
-0.930028
0.808547
0.395519
0.487743
-0.201273
-0.445634
-0.203862
0.327922
0.323371
0.091627
0.706549
-0.165538
0.446701
0.340874
-0.662509
0.635124
-0.990204
-0.428027
0.297790
0.870897
-0.901492
0.552427
0.716552
0.850892
-0.036073
-0.210162
0.317187
-0.058103
0.483274
0.756900
-0.232426
0.505758
0.440423
-0.988502
-0.022124
-0.518814
-0.146053
-1.026482
0.835451
-0.752817
0.161592
0.666071
0.199447
-0.356862
0.006944
0.536938
-0.721738
0.016741
-0.891089
0.576052
-0.112362
-0.792581
0.128479
-0.395810
-0.941689
-0.907594
0.391235
0.371103
0.020306
-0.177157
0.003703
0.671753
-0.608622
-0.309340
0.969137
0.488592
0.115105
-0.206657
0.508448
0.058126
0.154092
-0.260596
-0.275803
-0.646460
0.382541
0.731141
0.890478
0.660804
-0.252118
0.999389
0.236855
0.635520
-0.793192
-0.634666
-0.763118
-0.753929
-0.572073
0.566111
0.509513
0.389366
-0.563798
-0.244047
0.299074
-0.069480
0.398274
0.187242
-0.569689
-0.390947
-0.912591
-1.008438
0.667179
0.254187
-0.256349
-0.608624
0.607727
-0.873808
-0.877483
0.498205
0.786996
-0.129600
0.497594
0.023851
-0.504141
0.682572
0.340713
-0.331166
0.845685
0.701060
-0.688649
0.582005
0.322964
-0.127954
-0.675028
-0.432774
0.808988
0.826974
0.871117
-0.711447
-0.563972
0.983898
-0.694513
-0.896793
0.238085
0.049138
-0.505417
-0.154188
0.175330
-0.382899
-0.655983
-0.037674
0.473692
0.807250
0.936280
0.908575
0.403701
0.209795
-0.360186
0.482909
0.180862
0.055287
0.072117
-0.521923
-1.026213
0.503286
0.180468
0.838404
0.330261
0.076957
-0.847670
0.766288
0.060854
-0.542183
0.869495
-0.701061
0.506955
-0.635922
0.144751
-0.317715
-0.032657
0.476796
0.643671
-0.601680
0.181687
0.448401
-0.699467
-0.156064
-0.038812
0.131160
-0.670729
-0.863453
-0.730471
0.517602
-0.222987
-0.681990
0.020889
0.982853
-0.818213
-0.648850
0.059810
-0.665883
-0.882562
-0.879336
-0.208067
0.986933
-0.580397
-0.701112
-0.661569
0.516971
-0.060720
0.295271
-0.066370
-0.543317
0.648135
-0.739940
-0.840030
-0.841365
0.192452
0.207163
0.453558
0.641267
0.478483
0.783679
0.169426
-0.719132
-0.885624
-0.809685
-0.736279
-0.703837
-0.458536
0.323531
-0.369721
-0.341098
0.444195
0.422212
-0.366851
0.812600
0.690981
-0.018625
0.326114
-0.422950
-0.795204
-0.632780
0.243156
-0.959428
-0.148184
0.588481
-0.603278
-0.871647
-0.151094
0.858536
0.776497
-0.661474
0.640666
-0.054077
-0.380606
0.755042
0.136238
-0.116885
-0.948795
0.677702
-0.793355
-0.318516
-0.665168
0.628979
-0.947644
-0.036408
0.495306
0.801889
0.955533
-0.095077
-0.510891
-0.724661
0.421541
0.858976
-0.560053
-0.709604
0.441306
-0.167351
-0.586481
-0.712886
-0.311914
-0.809984
-0.374361
-0.671247
0.135939
0.245033
-0.916205
-0.727823
-0.871852
-0.865000
0.949880
-0.665207
-0.175351
-0.706252
0.992707
-0.072760
0.280372
0.498757
-0.254916
0.248210
-0.556936
0.272045
0.556533
0.867131
0.128721
0.994760
-0.844023
-0.433072
-0.174140
-0.430504
-0.145959
0.513946
-0.240487
0.479681
0.842699
0.895452
-0.275286
0.926494
-0.832370
-0.147138
-0.938507
-0.882491
0.187654
-0.122023
-0.596006
0.173288
0.798157
0.672918
-0.326440
-0.456867
-0.078872
0.116623
0.815178
-0.522340
-0.016245
-0.057651
-0.527580
0.139732
0.509277
0.298280
0.709228
-0.636681
-0.187774
-0.531259
0.843000
-0.345075
-0.635807
-0.432287
-0.418582
-0.468178
0.420575
-0.357089
-0.350668
-0.391771
0.520888
0.053325
0.781517
0.319045
-0.273757
-0.544923
0.862177
0.647371
0.571700
0.677355
-0.874969
-0.444545
-0.380295
-0.402548
0.695186
-0.871018
0.895731
0.404415
-0.507699
-0.292043
0.873155
-0.664700
0.362882
-0.762652
-0.096986
0.944300
-0.230830
-0.676411
-0.412789
0.418502
-0.068182
-0.891901
-0.528172
-0.286665
0.427144
0.198071
0.168412
0.289321
-0.154558
-0.259888
-0.033323
-0.029527
0.295566
0.586382
0.567924
-0.009247
0.715364
0.463656
-0.604833
-0.792335
-0.828387
-0.731678
-0.457035
0.534495
-0.494330
0.445979
0.478795
0.274841
0.769567
-0.933994
-0.306657
-0.298615
-0.825894
0.165171
0.414720
0.601250
-0.636759
-0.416868
-0.109429
0.208683
0.323244
0.857248
-0.820844
-0.381190
0.443629
0.747080
0.609563
0.158993
0.210736
-0.995270
0.366658
0.382349
-0.726947
0.909623
-0.083156
-0.221277
0.355601
-0.604361
-0.946436
0.125168
-0.538355
-0.253093
0.826554
-0.364249
0.912078
0.241274
-0.763000
-0.724681
0.824406
0.127571
0.484002
0.147650
-0.015181
0.663158
0.766460
-0.571552
0.410238
0.376023
0.587441
-0.379026
0.380753
-0.045901
-0.996677
0.653806
-0.136278
-0.079833
-0.567471
-0.780677
0.315806
-0.513907
0.344491
0.777451
0.233000
0.171045
-0.586798
0.145077
-0.587681
-0.349798
0.420396
-0.763275
0.777773
-0.095602
0.384375
-0.237408
-0.432444
0.150836
0.191040
0.977793
-0.473141
-0.221519
-0.401233
0.907612
0.732580
-0.397910
0.561417
-0.403698
0.522256
0.993946
-0.184375
-0.161938
-0.519961
-0.839884
-0.384487
0.713038
0.331161
0.028714
-0.141884
0.743480
0.678916
-0.721488
0.980205
0.456689
0.182910
0.364581
-0.780718
0.750465
-0.484584
0.410322
0.728258
0.042275
-0.811197
-0.672975
-0.050113
0.921384
-0.070885
-0.488696
-0.482314
-0.548628
-0.494750
0.333310
0.289434
-0.014711
0.493426
0.904947
-0.301673
-0.175413
-0.066339
0.556443
-0.431933
-0.387423
0.834954
-0.451728
-0.930733
0.017864
0.912852
-0.711452
-0.231671
-0.571731
0.698870
-0.503412
0.470544
0.887673
-0.176387
-0.579569
0.809057
0.752728
-0.068265
-0.673258
-0.795900
0.436985
0.660053
0.493534
-0.577727
0.153479
0.398480
0.120601
0.978065
-0.667859
-0.322957
-0.453868
-0.055282
-0.488003
0.094404
0.013985
0.529861
0.007256
0.302533
-0.701810
0.435525
0.001403
-0.205222
-0.093931
-0.110923
0.618391
0.326499
-0.301867
0.371119
-0.741766
0.024876
0.575219
0.695218
-0.315071
0.068753
-0.882508
0.838407
-0.533062
0.241689
0.823240
-0.188063
0.927699
-0.624826
0.756662
-0.563469
0.460754
-0.238326
0.956994
-0.535736
-0.939389
-0.744816
0.899789
0.062014
0.049962
-0.194143
0.951091
-0.331647
-0.867643
-0.350776
-0.960528
-0.609410
0.674100
0.614691
-0.914191
-0.640971
-0.313681
-0.801549
-0.790001
0.163239
0.453963
-0.973522
0.962620
0.369099
-0.614097
0.686564
0.783662
0.833520
-0.547780
0.740656
-0.702217
-0.487169
0.995840
-0.802428
0.574845
0.045802
0.003429
0.525935
0.714155
0.135786
-0.824840
0.753627
0.526376
0.849260
0.370192
0.647190
-0.766182
-0.897549
0.850778
-0.508650
0.288064
0.321659
-0.515595
0.162491
-0.368189
-0.203579
-0.153370
-0.602931
-0.370336
0.298850
-0.862275
-0.072552
0.811680
-0.866435
0.125020
0.386525
0.179368
-0.871551
-0.087540
-0.106477
0.264235
0.087899
-0.350372
-0.175929
-0.135641
-1.012829
-0.584535
0.148774
-0.969723
-0.773811
0.598065
0.275657
0.492359
0.970802
-0.577845
-0.911432
-0.233331
0.268785
-0.514362
0.396333
-0.432365
-0.376637
-0.676219
-0.620685
-0.243072
0.448801
0.765840
0.936296
0.577250
-0.321421
-0.177859
-0.193471
0.740600
0.431844
0.684258
-0.240327
0.448925
-1.025079
0.702383
0.552913
-0.745261
0.399140
-0.170665
0.728334
0.369386
0.251490
0.816902
-0.863945
-0.479725
-0.697460
0.532389
0.087909
-0.074097
0.856170
0.467224
0.682831
0.304971
0.188346
0.543530
-0.200857
0.799646
-0.480335
0.866089
0.726109
0.927734
0.245742
-0.764540
0.387113
0.366114
-0.771667
-0.021981
0.643864
0.626915
0.807353
0.372198
-0.003699
0.058843
0.189101
0.132357
0.579118
0.491641
-0.335255
-0.332973
-0.582456
-0.479085
-0.910467
-0.942652
0.722102
0.330903
0.825915
-0.126420
0.398856
-0.796347
-0.588373
-0.156671
-0.946925
0.763014
0.336049
0.512711
0.178301
0.564102
-0.509270
-0.177834
0.191017
-0.701917
-0.805636
-0.812682
0.356926
0.383465
0.319675
-0.063956
-0.124895
0.984420
0.602794
0.263562
-0.614878
0.741205
0.548523
-0.511714
0.180335
0.110592
0.014972
-0.687020
0.275783
0.473029
0.339281
0.375331
0.258748
-0.324670
-0.111958
-0.562951
-0.760568
0.378772
0.259215
0.430450
0.676855
