0.582878
0.685331
-0.842075
-0.277640
0.450144
-0.032470
0.344402
0.717682
-0.218393
0.604019
0.209285
-0.539401
0.079389
-1.043768
-0.154716
-0.716976
-1.107387
0.200871
-0.420091
0.042265
0.348010
-0.725211
0.426292
-0.165428
-0.555216
-0.682066
-0.481258
0.187600
-0.612008
0.698696
-0.435354
-0.639410
1.038190
0.328034
0.135406
0.132856
0.796828
-0.220768
-0.102952
-0.130988
-0.132060
-0.761127
0.275692
0.837067
-0.850946
-0.344884
-0.510211
-0.463076
0.545097
0.078920
0.494053
-0.004989
0.403027
0.360979
1.314656
0.710549
0.442586
-0.045098
0.274295
0.847216
-0.641175
0.996714
-1.048655
0.613660
-0.601361
0.915420
-0.986354
-0.703968
0.871521
1.534567
0.041923
-0.840206
1.033144
-1.149434
0.920161
0.708370
-0.345584
0.677706
-0.616321
1.373766
0.106764
0.546078
0.109479
0.660741
-0.355808
-0.210963
1.377612
-0.679044
-0.175507
0.228223
1.408224
0.037498
-1.129139
0.805872
-0.367463
1.132307
0.597209
1.140779
0.732488
-0.486611
0.221313
-0.553159
-0.001054
-0.716104
0.156081
-1.007674
0.419874
2.034959
-0.039890
0.548217
0.622466
1.004835
0.185332
-1.152353
0.389557
1.269609
0.316152
-0.170292
0.686038
-0.634087
-0.555627
0.736734
0.825966
-0.244660
1.108992
0.239443
1.783135
-0.418901
-0.455227
-0.212179
0.632294
0.848707
-0.275954
0.537479
0.813000
0.095136
0.791478
1.857318
0.176465
0.038453
0.610527
-0.830666
-0.329746
-0.526016
0.063846
0.837026
0.198311
-2.395368
0.904850
-0.191001
-0.309102
0.670443
-0.694435
-0.503478
0.920164
-1.184205
1.260423
0.358428
1.232516
-0.079411
0.397210
-0.168270
1.458487
0.292805
1.660165
0.121489
-1.667942
-0.175241
0.115105
0.979749
-0.449001
1.639332
0.990092
-1.032005
1.039893
-0.558181
-0.908335
0.781995
-0.065077
0.206161
0.429090
-0.008179
0.169683
0.768070
1.013765
-1.014114
1.909074
-0.645745
-1.237211
0.687943
-0.910924
0.266902
-0.530863
1.631568
-0.163669
-0.716958
-1.117177
-0.907231
1.216204
0.290956
1.606637
1.606184
-0.260687
1.125318
-0.184090
-0.681266
0.782246
-0.021180
1.202884
-0.646860
-1.115124
-0.717596
0.158676
-0.089543
0.503013
0.432230
0.473886
0.842376
0.806918
1.327773
-0.101205
1.204711
0.407156
-0.608967
0.252288
0.497100
0.265168
0.286787
-1.448665
-0.968821
-0.310566
-0.933101
-0.297382
0.087860
0.409750
0.048836
1.156890
0.089109
-1.274203
0.923973
1.434130
-0.608962
1.066307
0.510661
0.325048
0.971673
0.508704
-0.133003
0.218466
-1.442677
-0.175508
-0.589316
0.998427
-0.881984
1.734866
0.158034
0.922283
-0.754260
-0.000922
-0.825062
1.086912
0.153736
-0.848571
0.053480
-0.904186
1.073383
1.781325
0.478770
0.446118
-1.597055
0.883452
-0.667260
-0.106205
0.209023
-0.900518
-0.652037
0.296382
-0.135597
-0.006799
-1.049121
0.589539
-0.748372
0.737707
0.622290
0.766143
-0.319699
-0.419811
-0.531180
1.291799
0.129595
0.271879
0.569411
1.113285
0.377437
-0.425765
0.664116
-0.590454
-0.809441
0.901253
1.815018
